<?xml version="1.0"?>
<opencv_storage>
<stage1>
  <maxWeakCount>6</maxWeakCount>
  <stageThreshold>-1.0010608434677124e+00</stageThreshold>
  <weakClassifiers>
    <_>
      <internalNodes>
        0 -1 75605 -7.1316421031951904e-02</internalNodes>
      <leafValues>
        6.4516127109527588e-01 -4.8611110448837280e-01</leafValues></_>
    <_>
      <internalNodes>
        0 -1 19858 -2.9375014826655388e-02</internalNodes>
      <leafValues>
        7.9754316806793213e-01 -2.7653053402900696e-01</leafValues></_>
    <_>
      <internalNodes>
        0 -1 4128 4.1540451347827911e-03</internalNodes>
      <leafValues>
        2.9418596625328064e-01 -9.6757620573043823e-01</leafValues></_>
    <_>
      <internalNodes>
        0 -1 17132 1.4675232768058777e-01</internalNodes>
      <leafValues>
        -3.4796303510665894e-01 9.0380614995956421e-01</leafValues></_>
    <_>
      <internalNodes>
        0 -1 8181 -2.0494679920375347e-03</internalNodes>
      <leafValues>
        -7.1833127737045288e-01 3.9447444677352905e-01</leafValues></_>
    <_>
      <internalNodes>
        0 -1 15756 -3.1043952330946922e-02</internalNodes>
      <leafValues>
        5.3368908166885376e-01 -5.6339818239212036e-01</leafValues></_></weakClassifiers></stage1>
</opencv_storage>
