<?xml version="1.0"?>
<opencv_storage>
<stage16>
  <maxWeakCount>12</maxWeakCount>
  <stageThreshold>-8.6311882734298706e-01</stageThreshold>
  <weakClassifiers>
    <_>
      <internalNodes>
        0 -1 112730 -8.1573575735092163e-02</internalNodes>
      <leafValues>
        -8.3673471212387085e-01 3.2384341955184937e-01</leafValues></_>
    <_>
      <internalNodes>
        0 -1 129917 -2.5278136134147644e-02</internalNodes>
      <leafValues>
        -3.8841181993484497e-01 4.2275196313858032e-01</leafValues></_>
    <_>
      <internalNodes>
        0 -1 151098 -1.6045265365391970e-03</internalNodes>
      <leafValues>
        5.2611023187637329e-01 -2.3434752225875854e-01</leafValues></_>
    <_>
      <internalNodes>
        0 -1 145445 -5.0337243825197220e-02</internalNodes>
      <leafValues>
        -6.0097014904022217e-01 1.8669159710407257e-01</leafValues></_>
    <_>
      <internalNodes>
        0 -1 137871 -7.4632192263379693e-04</internalNodes>
      <leafValues>
        5.5890226364135742e-01 -2.2071567177772522e-01</leafValues></_>
    <_>
      <internalNodes>
        0 -1 15366 -2.0055461209267378e-04</internalNodes>
      <leafValues>
        6.1164677143096924e-01 -1.9895356893539429e-01</leafValues></_>
    <_>
      <internalNodes>
        0 -1 159691 -3.4152022562921047e-03</internalNodes>
      <leafValues>
        -8.3633881807327271e-01 1.4044286310672760e-01</leafValues></_>
    <_>
      <internalNodes>
        0 -1 48809 1.0240182746201754e-03</internalNodes>
      <leafValues>
        3.5370916128158569e-01 -3.7336495518684387e-01</leafValues></_>
    <_>
      <internalNodes>
        0 -1 89763 1.6759364370955154e-05</internalNodes>
      <leafValues>
        -2.3730857670307159e-01 5.4092985391616821e-01</leafValues></_>
    <_>
      <internalNodes>
        0 -1 10133 1.0546067729592323e-02</internalNodes>
      <leafValues>
        2.0637658238410950e-01 -6.0425186157226563e-01</leafValues></_>
    <_>
      <internalNodes>
        0 -1 160982 3.3008836908265948e-04</internalNodes>
      <leafValues>
        -1.8167524039745331e-01 7.2125315666198730e-01</leafValues></_>
    <_>
      <internalNodes>
        0 -1 5150 -1.6361773014068604e-02</internalNodes>
      <leafValues>
        -8.7651401758193970e-01 1.4669407904148102e-01</leafValues></_></weakClassifiers></stage16>
</opencv_storage>
