<?xml version="1.0"?>
<opencv_storage>
<stage22>
  <maxWeakCount>13</maxWeakCount>
  <stageThreshold>-6.8190532922744751e-01</stageThreshold>
  <weakClassifiers>
    <_>
      <internalNodes>
        0 -1 35185 -1.4211207162588835e-03</internalNodes>
      <leafValues>
        4.4117647409439087e-01 -3.1746032834053040e-01</leafValues></_>
    <_>
      <internalNodes>
        0 -1 4122 -4.0484378114342690e-03</internalNodes>
      <leafValues>
        -8.5982352495193481e-01 1.3597588241100311e-01</leafValues></_>
    <_>
      <internalNodes>
        0 -1 36067 -1.5502767637372017e-03</internalNodes>
      <leafValues>
        3.9743858575820923e-01 -3.2192930579185486e-01</leafValues></_>
    <_>
      <internalNodes>
        0 -1 2317 9.5265246927738190e-03</internalNodes>
      <leafValues>
        2.4253970384597778e-01 -5.1341044902801514e-01</leafValues></_>
    <_>
      <internalNodes>
        0 -1 121269 -1.1999121634289622e-03</internalNodes>
      <leafValues>
        -4.6340706944465637e-01 2.4318245053291321e-01</leafValues></_>
    <_>
      <internalNodes>
        0 -1 52891 1.8844617297872901e-03</internalNodes>
      <leafValues>
        -2.2965890169143677e-01 4.9087390303611755e-01</leafValues></_>
    <_>
      <internalNodes>
        0 -1 6726 -1.7451312160119414e-03</internalNodes>
      <leafValues>
        2.5945413112640381e-01 -4.3858951330184937e-01</leafValues></_>
    <_>
      <internalNodes>
        0 -1 158624 9.0334322303533554e-03</internalNodes>
      <leafValues>
        1.3629409670829773e-01 -8.5067176818847656e-01</leafValues></_>
    <_>
      <internalNodes>
        0 -1 153594 4.6265905257314444e-04</internalNodes>
      <leafValues>
        -2.9217001795768738e-01 4.4369569420814514e-01</leafValues></_>
    <_>
      <internalNodes>
        0 -1 53092 -7.1854017674922943e-02</internalNodes>
      <leafValues>
        -1.1768853664398193e-01 7.8732246160507202e-01</leafValues></_>
    <_>
      <internalNodes>
        0 -1 93673 -1.5406879538204521e-04</internalNodes>
      <leafValues>
        5.2613449096679688e-01 -2.2959952056407928e-01</leafValues></_>
    <_>
      <internalNodes>
        0 -1 26068 2.0375491585582495e-03</internalNodes>
      <leafValues>
        -3.6932724714279175e-01 3.4046319127082825e-01</leafValues></_>
    <_>
      <internalNodes>
        0 -1 85 -2.6509896852076054e-03</internalNodes>
      <leafValues>
        -7.6593095064163208e-01 1.7869840562343597e-01</leafValues></_></weakClassifiers></stage22>
</opencv_storage>
