<?xml version="1.0"?>
<opencv_storage>
<stage17>
  <maxWeakCount>11</maxWeakCount>
  <stageThreshold>-4.8662719130516052e-01</stageThreshold>
  <weakClassifiers>
    <_>
      <internalNodes>
        0 -1 2176 -2.8627300634980202e-02</internalNodes>
      <leafValues>
        -4.1463413834571838e-01 3.3870968222618103e-01</leafValues></_>
    <_>
      <internalNodes>
        0 -1 56086 -2.7294952422380447e-02</internalNodes>
      <leafValues>
        5.0644719600677490e-01 -1.9038699567317963e-01</leafValues></_>
    <_>
      <internalNodes>
        0 -1 146425 -2.1715019829571247e-03</internalNodes>
      <leafValues>
        5.7512128353118896e-01 -1.7090596258640289e-01</leafValues></_>
    <_>
      <internalNodes>
        0 -1 154968 7.9247425310313702e-04</internalNodes>
      <leafValues>
        -1.4648288488388062e-01 7.7716827392578125e-01</leafValues></_>
    <_>
      <internalNodes>
        0 -1 139403 -3.0889041721820831e-02</internalNodes>
      <leafValues>
        -2.2613750398159027e-01 5.6750714778900146e-01</leafValues></_>
    <_>
      <internalNodes>
        0 -1 146192 -5.7094623334705830e-03</internalNodes>
      <leafValues>
        2.6512551307678223e-01 -4.0440666675567627e-01</leafValues></_>
    <_>
      <internalNodes>
        0 -1 121391 4.8204441554844379e-03</internalNodes>
      <leafValues>
        -1.6567608714103699e-01 7.1751809120178223e-01</leafValues></_>
    <_>
      <internalNodes>
        0 -1 64334 3.8611539639532566e-03</internalNodes>
      <leafValues>
        -1.3195809721946716e-01 7.1888655424118042e-01</leafValues></_>
    <_>
      <internalNodes>
        0 -1 83237 -1.0473572183400393e-03</internalNodes>
      <leafValues>
        -3.1732943654060364e-01 3.3768162131309509e-01</leafValues></_>
    <_>
      <internalNodes>
        0 -1 43757 1.4794853050261736e-03</internalNodes>
      <leafValues>
        -1.1650492995977402e-01 7.1991544961929321e-01</leafValues></_>
    <_>
      <internalNodes>
        0 -1 71553 2.3190393403638154e-04</internalNodes>
      <leafValues>
        -2.2358196973800659e-01 4.5459502935409546e-01</leafValues></_></weakClassifiers></stage17>
</opencv_storage>
