<?xml version="1.0"?>
<opencv_storage>
<stage4>
  <maxWeakCount>7</maxWeakCount>
  <stageThreshold>-6.7592912912368774e-01</stageThreshold>
  <weakClassifiers>
    <_>
      <internalNodes>
        0 -1 76614 -7.0238083600997925e-02</internalNodes>
      <leafValues>
        6.6250002384185791e-01 -3.2941177487373352e-01</leafValues></_>
    <_>
      <internalNodes>
        0 -1 2244 5.8280825614929199e-03</internalNodes>
      <leafValues>
        3.3102408051490784e-01 -6.6195499897003174e-01</leafValues></_>
    <_>
      <internalNodes>
        0 -1 21697 -9.5476990099996328e-04</internalNodes>
      <leafValues>
        4.7352746129035950e-01 -4.2203435301780701e-01</leafValues></_>
    <_>
      <internalNodes>
        0 -1 127789 5.4930457845330238e-03</internalNodes>
      <leafValues>
        2.9472753405570984e-01 -6.9543695449829102e-01</leafValues></_>
    <_>
      <internalNodes>
        0 -1 125049 -1.8760345119517297e-04</internalNodes>
      <leafValues>
        6.2199866771697998e-01 -3.4471946954727173e-01</leafValues></_>
    <_>
      <internalNodes>
        0 -1 22314 -5.0174286589026451e-03</internalNodes>
      <leafValues>
        5.2047622203826904e-01 -4.6562269330024719e-01</leafValues></_>
    <_>
      <internalNodes>
        0 -1 25297 8.7306648492813110e-04</internalNodes>
      <leafValues>
        2.8636848926544189e-01 -5.5352675914764404e-01</leafValues></_></weakClassifiers></stage4>
</opencv_storage>
