<?xml version="1.0"?>
<opencv_storage>
<cascade>
  <stageType>BOOST</stageType>
  <featureType>HAAR</featureType>
  <height>24</height>
  <width>24</width>
  <stageParams>
    <boostType>GAB</boostType>
    <minHitRate>9.9500000476837158e-01</minHitRate>
    <maxFalseAlarm>5.0000000000000000e-01</maxFalseAlarm>
    <weightTrimRate>9.4999999999999996e-01</weightTrimRate>
    <maxDepth>1</maxDepth>
    <maxWeakCount>100</maxWeakCount></stageParams>
  <featureParams>
    <maxCatCount>0</maxCatCount>
    <featSize>1</featSize>
    <mode>BASIC</mode></featureParams>
  <stageNum>28</stageNum>
  <stages>
    <!-- stage 0 -->
    <_>
      <maxWeakCount>6</maxWeakCount>
      <stageThreshold>-1.1683579683303833e+00</stageThreshold>
      <weakClassifiers>
        <_>
          <internalNodes>
            0 -1 131 -1.3540300726890564e-01</internalNodes>
          <leafValues>
            6.0294115543365479e-01 -6.7857140302658081e-01</leafValues></_>
        <_>
          <internalNodes>
            0 -1 30 -3.9946034550666809e-02</internalNodes>
          <leafValues>
            7.3820459842681885e-01 -3.8647305965423584e-01</leafValues></_>
        <_>
          <internalNodes>
            0 -1 177 8.5352763533592224e-02</internalNodes>
          <leafValues>
            2.7328535914421082e-01 -8.6682754755020142e-01</leafValues></_>
        <_>
          <internalNodes>
            0 -1 29 -2.2585636004805565e-02</internalNodes>
          <leafValues>
            -8.2510095834732056e-01 2.3677933216094971e-01</leafValues></_>
        <_>
          <internalNodes>
            0 -1 41 -5.3573627956211567e-03</internalNodes>
          <leafValues>
            2.4607120454311371e-01 -6.4042294025421143e-01</leafValues></_>
        <_>
          <internalNodes>
            0 -1 437 -4.7601308324374259e-04</internalNodes>
          <leafValues>
            -6.8540751934051514e-01 2.8066354990005493e-01</leafValues></_></weakClassifiers></_>
    <!-- stage 1 -->
    <_>
      <maxWeakCount>8</maxWeakCount>
      <stageThreshold>-1.5612541437149048e+00</stageThreshold>
      <weakClassifiers>
        <_>
          <internalNodes>
            0 -1 68 1.7743986845016479e-01</internalNodes>
          <leafValues>
            -6.2756049633026123e-01 7.4757283926010132e-01</leafValues></_>
        <_>
          <internalNodes>
            0 -1 28 -2.3231495171785355e-02</internalNodes>
          <leafValues>
            4.9253696203231812e-01 -4.8719224333763123e-01</leafValues></_>
        <_>
          <internalNodes>
            0 -1 167 -7.0998929440975189e-02</internalNodes>
          <leafValues>
            6.2918579578399658e-01 -3.4538173675537109e-01</leafValues></_>
        <_>
          <internalNodes>
            0 -1 355 -1.9493419677019119e-02</internalNodes>
          <leafValues>
            5.6828421354293823e-01 -2.8963667154312134e-01</leafValues></_>
        <_>
          <internalNodes>
            0 -1 33 -2.6871681213378906e-02</internalNodes>
          <leafValues>
            -9.3571609258651733e-01 1.9550141692161560e-01</leafValues></_>
        <_>
          <internalNodes>
            0 -1 9 5.6515028700232506e-03</internalNodes>
          <leafValues>
            2.5131672620773315e-01 -6.9970601797103882e-01</leafValues></_>
        <_>
          <internalNodes>
            0 -1 180 -3.4458371810615063e-03</internalNodes>
          <leafValues>
            3.9423376321792603e-01 -4.2423304915428162e-01</leafValues></_>
        <_>
          <internalNodes>
            0 -1 186 -2.2066598758101463e-03</internalNodes>
          <leafValues>
            -8.6668765544891357e-01 1.6593189537525177e-01</leafValues></_></weakClassifiers></_>
    <!-- stage 2 -->
    <_>
      <maxWeakCount>7</maxWeakCount>
      <stageThreshold>-1.1454532146453857e+00</stageThreshold>
      <weakClassifiers>
        <_>
          <internalNodes>
            0 -1 228 -1.1635237932205200e-01</internalNodes>
          <leafValues>
            4.0136054158210754e-01 -6.4705884456634521e-01</leafValues></_>
        <_>
          <internalNodes>
            0 -1 18 6.3132643699645996e-02</internalNodes>
          <leafValues>
            -3.1847405433654785e-01 6.2391346693038940e-01</leafValues></_>
        <_>
          <internalNodes>
            0 -1 154 -9.9744245409965515e-02</internalNodes>
          <leafValues>
            6.1106306314468384e-01 -3.2250374555587769e-01</leafValues></_>
        <_>
          <internalNodes>
            0 -1 11 1.3661217689514160e-01</internalNodes>
          <leafValues>
            2.3467952013015747e-01 -8.1205064058303833e-01</leafValues></_>
        <_>
          <internalNodes>
            0 -1 35 -1.2629732489585876e-01</internalNodes>
          <leafValues>
            -9.8617345094680786e-01 1.9833137094974518e-01</leafValues></_>
        <_>
          <internalNodes>
            0 -1 306 -2.8406083583831787e-03</internalNodes>
          <leafValues>
            3.7962093949317932e-01 -3.7256044149398804e-01</leafValues></_>
        <_>
          <internalNodes>
            0 -1 309 -8.7205920135602355e-04</internalNodes>
          <leafValues>
            -7.2917771339416504e-01 1.8647557497024536e-01</leafValues></_></weakClassifiers></_>
    <!-- stage 3 -->
    <_>
      <maxWeakCount>8</maxWeakCount>
      <stageThreshold>-1.5187412500381470e+00</stageThreshold>
      <weakClassifiers>
        <_>
          <internalNodes>
            0 -1 5 -6.0337078571319580e-01</internalNodes>
          <leafValues>
            -5.8483755588531494e-01 7.4418604373931885e-01</leafValues></_>
        <_>
          <internalNodes>
            0 -1 408 -8.4218621253967285e-02</internalNodes>
          <leafValues>
            -8.7108725309371948e-01 1.7891116440296173e-01</leafValues></_>
        <_>
          <internalNodes>
            0 -1 159 1.5708678402006626e-03</internalNodes>
          <leafValues>
            -4.0054616332054138e-01 3.7766900658607483e-01</leafValues></_>
        <_>
          <internalNodes>
            0 -1 53 -1.3723005540668964e-03</internalNodes>
          <leafValues>
            4.8528528213500977e-01 -2.9884368181228638e-01</leafValues></_>
        <_>
          <internalNodes>
            0 -1 330 -1.1651562526822090e-03</internalNodes>
          <leafValues>
            4.3617600202560425e-01 -3.1283751130104065e-01</leafValues></_>
        <_>
          <internalNodes>
            0 -1 151 4.5856617391109467e-02</internalNodes>
          <leafValues>
            2.5521141290664673e-01 -5.6200557947158813e-01</leafValues></_>
        <_>
          <internalNodes>
            0 -1 73 -1.0303709656000137e-02</internalNodes>
          <leafValues>
            -8.0020618438720703e-01 1.5728355944156647e-01</leafValues></_>
        <_>
          <internalNodes>
            0 -1 43 -6.9263920886442065e-04</internalNodes>
          <leafValues>
            2.5842422246932983e-01 -4.4487899541854858e-01</leafValues></_></weakClassifiers></_>
    <!-- stage 4 -->
    <_>
      <maxWeakCount>13</maxWeakCount>
      <stageThreshold>-1.3147333860397339e+00</stageThreshold>
      <weakClassifiers>
        <_>
          <internalNodes>
            0 -1 13 9.8266407847404480e-02</internalNodes>
          <leafValues>
            -5.8699810504913330e-01 4.0170940756797791e-01</leafValues></_>
        <_>
          <internalNodes>
            0 -1 45 -3.5674297250807285e-03</internalNodes>
          <leafValues>
            2.0964339375495911e-01 -4.4774401187896729e-01</leafValues></_>
        <_>
          <internalNodes>
            0 -1 420 -1.0890925768762827e-03</internalNodes>
          <leafValues>
            4.1145738959312439e-01 -2.4559757113456726e-01</leafValues></_>
        <_>
          <internalNodes>
            0 -1 370 -1.3651870191097260e-02</internalNodes>
          <leafValues>
            4.5638704299926758e-01 -2.6887708902359009e-01</leafValues></_>
        <_>
          <internalNodes>
            0 -1 223 -3.4177249670028687e-01</internalNodes>
          <leafValues>
            -1.3297669589519501e-01 7.7043265104293823e-01</leafValues></_>
        <_>
          <internalNodes>
            0 -1 61 2.0868615247309208e-03</internalNodes>
          <leafValues>
            1.9660797715187073e-01 -5.4413348436355591e-01</leafValues></_>
        <_>
          <internalNodes>
            0 -1 345 -8.0501399934291840e-03</internalNodes>
          <leafValues>
            -8.4739983081817627e-01 1.2621811032295227e-01</leafValues></_>
        <_>
          <internalNodes>
            0 -1 350 -1.9030419935006648e-05</internalNodes>
          <leafValues>
            2.7021208405494690e-01 -3.6606371402740479e-01</leafValues></_>
        <_>
          <internalNodes>
            0 -1 65 9.8288664594292641e-04</internalNodes>
          <leafValues>
            1.8927618861198425e-01 -5.0841999053955078e-01</leafValues></_>
        <_>
          <internalNodes>
            0 -1 142 2.0195406250422820e-05</internalNodes>
          <leafValues>
            -3.1587389111518860e-01 2.8059715032577515e-01</leafValues></_>
        <_>
          <internalNodes>
            0 -1 99 8.4632933139801025e-02</internalNodes>
          <leafValues>
            -1.3476251065731049e-01 6.7282396554946899e-01</leafValues></_>
        <_>
          <internalNodes>
            0 -1 157 -5.0164956599473953e-02</internalNodes>
          <leafValues>
            7.2039198875427246e-01 -1.4271186292171478e-01</leafValues></_>
        <_>
          <internalNodes>
            0 -1 102 1.1980767361819744e-02</internalNodes>
          <leafValues>
            -3.8161724805831909e-01 2.7971905469894409e-01</leafValues></_></weakClassifiers></_>
    <!-- stage 5 -->
    <_>
      <maxWeakCount>9</maxWeakCount>
      <stageThreshold>-1.2952784299850464e+00</stageThreshold>
      <weakClassifiers>
        <_>
          <internalNodes>
            0 -1 8 1.0513631999492645e-01</internalNodes>
          <leafValues>
            -6.3313609361648560e-01 4.5864662528038025e-01</leafValues></_>
        <_>
          <internalNodes>
            0 -1 329 -1.3999436981976032e-02</internalNodes>
          <leafValues>
            -8.1147068738937378e-01 1.4528268575668335e-01</leafValues></_>
        <_>
          <internalNodes>
            0 -1 318 -6.3004228286445141e-04</internalNodes>
          <leafValues>
            5.5587041378021240e-01 -2.5194093585014343e-01</leafValues></_>
        <_>
          <internalNodes>
            0 -1 4 1.4990501105785370e-01</internalNodes>
          <leafValues>
            2.0480661094188690e-01 -6.1797159910202026e-01</leafValues></_>
        <_>
          <internalNodes>
            0 -1 196 3.7239140365272760e-03</internalNodes>
          <leafValues>
            -2.5555300712585449e-01 3.9882594347000122e-01</leafValues></_>
        <_>
          <internalNodes>
            0 -1 16 4.0459483861923218e-03</internalNodes>
          <leafValues>
            1.0533715784549713e-01 -8.8811069726943970e-01</leafValues></_>
        <_>
          <internalNodes>
            0 -1 432 -1.6169375739991665e-03</internalNodes>
          <leafValues>
            5.3907251358032227e-01 -1.7518079280853271e-01</leafValues></_>
        <_>
          <internalNodes>
            0 -1 305 -3.9156422019004822e-02</internalNodes>
          <leafValues>
            -7.9723000526428223e-01 1.3346798717975616e-01</leafValues></_>
        <_>
          <internalNodes>
            0 -1 286 -5.4536887910217047e-04</internalNodes>
          <leafValues>
            3.8839131593704224e-01 -2.9582867026329041e-01</leafValues></_></weakClassifiers></_>
    <!-- stage 6 -->
    <_>
      <maxWeakCount>9</maxWeakCount>
      <stageThreshold>-9.9168968200683594e-01</stageThreshold>
      <weakClassifiers>
        <_>
          <internalNodes>
            0 -1 3 -2.7814537286758423e-01</internalNodes>
          <leafValues>
            -5.6586271524429321e-01 4.4554454088211060e-01</leafValues></_>
        <_>
          <internalNodes>
            0 -1 278 -1.5798443555831909e-01</internalNodes>
          <leafValues>
            -7.9258203506469727e-01 9.3498684465885162e-02</leafValues></_>
        <_>
          <internalNodes>
            0 -1 44 -3.0622184276580811e-03</internalNodes>
          <leafValues>
            -7.1615487337112427e-01 1.0647050291299820e-01</leafValues></_>
        <_>
          <internalNodes>
            0 -1 306 -2.8458875603973866e-03</internalNodes>
          <leafValues>
            3.5300007462501526e-01 -2.6460394263267517e-01</leafValues></_>
        <_>
          <internalNodes>
            0 -1 285 -4.4740766286849976e-02</internalNodes>
          <leafValues>
            5.3504693508148193e-01 -1.8851026892662048e-01</leafValues></_>
        <_>
          <internalNodes>
            0 -1 421 -7.6164947822690010e-03</internalNodes>
          <leafValues>
            5.7218164205551147e-01 -1.6387562453746796e-01</leafValues></_>
        <_>
          <internalNodes>
            0 -1 23 -3.4893214702606201e-02</internalNodes>
          <leafValues>
            -6.1146360635757446e-01 1.6277873516082764e-01</leafValues></_>
        <_>
          <internalNodes>
            0 -1 438 -2.6518248487263918e-03</internalNodes>
          <leafValues>
            -6.1171013116836548e-01 1.1737979203462601e-01</leafValues></_>
        <_>
          <internalNodes>
            0 -1 173 -8.0400720238685608e-02</internalNodes>
          <leafValues>
            8.8565719127655029e-01 -1.3232649862766266e-01</leafValues></_></weakClassifiers></_>
    <!-- stage 7 -->
    <_>
      <maxWeakCount>11</maxWeakCount>
      <stageThreshold>-1.2643373012542725e+00</stageThreshold>
      <weakClassifiers>
        <_>
          <internalNodes>
            0 -1 426 -1.1241408996284008e-02</internalNodes>
          <leafValues>
            -5.3125000000000000e-01 7.1875000000000000e-01</leafValues></_>
        <_>
          <internalNodes>
            0 -1 37 -1.1058056261390448e-03</internalNodes>
          <leafValues>
            1.3542431592941284e-01 -5.0011265277862549e-01</leafValues></_>
        <_>
          <internalNodes>
            0 -1 312 8.2841962575912476e-03</internalNodes>
          <leafValues>
            1.9732634723186493e-01 -5.3562605381011963e-01</leafValues></_>
        <_>
          <internalNodes>
            0 -1 158 3.2235658727586269e-04</internalNodes>
          <leafValues>
            -3.8158702850341797e-01 2.2208975255489349e-01</leafValues></_>
        <_>
          <internalNodes>
            0 -1 91 -2.3961775004863739e-02</internalNodes>
          <leafValues>
            -1.0222490131855011e-01 6.9522500038146973e-01</leafValues></_>
        <_>
          <internalNodes>
            0 -1 423 1.5155971595959272e-05</internalNodes>
          <leafValues>
            -2.5506576895713806e-01 3.4533029794692993e-01</leafValues></_>
        <_>
          <internalNodes>
            0 -1 372 -9.5094204880297184e-05</internalNodes>
          <leafValues>
            2.3315598070621490e-01 -3.7485277652740479e-01</leafValues></_>
        <_>
          <internalNodes>
            0 -1 226 7.8674420714378357e-02</internalNodes>
          <leafValues>
            -1.0054794698953629e-01 8.7480479478836060e-01</leafValues></_>
        <_>
          <internalNodes>
            0 -1 385 9.5595438033342361e-03</internalNodes>
          <leafValues>
            1.7131012678146362e-01 -5.7350981235504150e-01</leafValues></_>
        <_>
          <internalNodes>
            0 -1 393 -9.4789499416947365e-03</internalNodes>
          <leafValues>
            -5.1937091350555420e-01 1.5207795798778534e-01</leafValues></_>
        <_>
          <internalNodes>
            0 -1 283 3.5943049006164074e-03</internalNodes>
          <leafValues>
            -1.4741933345794678e-01 6.0663414001464844e-01</leafValues></_></weakClassifiers></_>
    <!-- stage 8 -->
    <_>
      <maxWeakCount>16</maxWeakCount>
      <stageThreshold>-1.0795614719390869e+00</stageThreshold>
      <weakClassifiers>
        <_>
          <internalNodes>
            0 -1 253 -2.1857856214046478e-01</internalNodes>
          <leafValues>
            -5.0085473060607910e-01 6.0000002384185791e-01</leafValues></_>
        <_>
          <internalNodes>
            0 -1 97 -3.7573754787445068e-02</internalNodes>
          <leafValues>
            8.8927328586578369e-02 -6.5376102924346924e-01</leafValues></_>
        <_>
          <internalNodes>
            0 -1 77 8.1866919994354248e-02</internalNodes>
          <leafValues>
            1.8870723247528076e-01 -6.0619342327117920e-01</leafValues></_>
        <_>
          <internalNodes>
            0 -1 397 -1.2956967111676931e-03</internalNodes>
          <leafValues>
            3.5068419575691223e-01 -2.7156859636306763e-01</leafValues></_>
        <_>
          <internalNodes>
            0 -1 201 4.6119047328829765e-03</internalNodes>
          <leafValues>
            -2.0818844437599182e-01 3.6468514800071716e-01</leafValues></_>
        <_>
          <internalNodes>
            0 -1 270 -5.3898550570011139e-02</internalNodes>
          <leafValues>
            -2.2443680465221405e-01 4.7600877285003662e-01</leafValues></_>
        <_>
          <internalNodes>
            0 -1 53 -1.5801147092133760e-03</internalNodes>
          <leafValues>
            2.9388487339019775e-01 -2.7900213003158569e-01</leafValues></_>
        <_>
          <internalNodes>
            0 -1 325 1.2666324619203806e-03</internalNodes>
          <leafValues>
            -1.8472743034362793e-01 4.6803337335586548e-01</leafValues></_>
        <_>
          <internalNodes>
            0 -1 49 1.8483473360538483e-01</internalNodes>
          <leafValues>
            7.9695217311382294e-02 -8.9563620090484619e-01</leafValues></_>
        <_>
          <internalNodes>
            0 -1 363 -1.1592914164066315e-01</internalNodes>
          <leafValues>
            -8.4193420410156250e-01 8.5965260863304138e-02</leafValues></_>
        <_>
          <internalNodes>
            0 -1 76 -1.9209475722163916e-03</internalNodes>
          <leafValues>
            3.1737279891967773e-01 -2.5466656684875488e-01</leafValues></_>
        <_>
          <internalNodes>
            0 -1 127 9.9583640694618225e-02</internalNodes>
          <leafValues>
            -1.7151369154453278e-01 5.6810528039932251e-01</leafValues></_>
        <_>
          <internalNodes>
            0 -1 293 -3.9607638609595597e-04</internalNodes>
          <leafValues>
            4.5870345830917358e-01 -2.3162657022476196e-01</leafValues></_>
        <_>
          <internalNodes>
            0 -1 89 -2.0227888599038124e-03</internalNodes>
          <leafValues>
            -5.2188640832901001e-01 1.8133284151554108e-01</leafValues></_>
        <_>
          <internalNodes>
            0 -1 284 -3.8191414205357432e-05</internalNodes>
          <leafValues>
            1.7638030648231506e-01 -4.3478593230247498e-01</leafValues></_>
        <_>
          <internalNodes>
            0 -1 362 4.6181897632777691e-03</internalNodes>
          <leafValues>
            -1.2325043231248856e-01 7.2877830266952515e-01</leafValues></_></weakClassifiers></_>
    <!-- stage 9 -->
    <_>
      <maxWeakCount>17</maxWeakCount>
      <stageThreshold>-1.2866746187210083e+00</stageThreshold>
      <weakClassifiers>
        <_>
          <internalNodes>
            0 -1 66 -1.1550720036029816e-01</internalNodes>
          <leafValues>
            -5.2727270126342773e-01 3.3333334326744080e-01</leafValues></_>
        <_>
          <internalNodes>
            0 -1 181 2.8902678750455379e-03</internalNodes>
          <leafValues>
            -3.4140217304229736e-01 2.1175585687160492e-01</leafValues></_>
        <_>
          <internalNodes>
            0 -1 371 -5.8289850130677223e-03</internalNodes>
          <leafValues>
            3.7030452489852905e-01 -2.3781566321849823e-01</leafValues></_>
        <_>
          <internalNodes>
            0 -1 340 -4.8831303138285875e-04</internalNodes>
          <leafValues>
            2.4710626900196075e-01 -3.3186170458793640e-01</leafValues></_>
        <_>
          <internalNodes>
            0 -1 31 -1.0725927539169788e-02</internalNodes>
          <leafValues>
            -7.5889569520950317e-01 1.4295443892478943e-01</leafValues></_>
        <_>
          <internalNodes>
            0 -1 360 -4.0314709767699242e-03</internalNodes>
          <leafValues>
            4.3900969624519348e-01 -2.1564131975173950e-01</leafValues></_>
        <_>
          <internalNodes>
            0 -1 239 -5.2158562466502190e-03</internalNodes>
          <leafValues>
            5.7273888587951660e-01 -1.2604564428329468e-01</leafValues></_>
        <_>
          <internalNodes>
            0 -1 416 -1.3555762171745300e-01</internalNodes>
          <leafValues>
            -3.2099997997283936e-01 2.7366629242897034e-01</leafValues></_>
        <_>
          <internalNodes>
            0 -1 308 -1.7943181097507477e-02</internalNodes>
          <leafValues>
            5.4050445556640625e-01 -1.7536890506744385e-01</leafValues></_>
        <_>
          <internalNodes>
            0 -1 392 1.3520285487174988e-02</internalNodes>
          <leafValues>
            9.2530764639377594e-02 -9.5202714204788208e-01</leafValues></_>
        <_>
          <internalNodes>
            0 -1 261 3.9914473891258240e-03</internalNodes>
          <leafValues>
            -1.3939049839973450e-01 6.6615200042724609e-01</leafValues></_>
        <_>
          <internalNodes>
            0 -1 179 -3.2993627246469259e-04</internalNodes>
          <leafValues>
            2.1433418989181519e-01 -3.8932770490646362e-01</leafValues></_>
        <_>
          <internalNodes>
            0 -1 387 1.1146537144668400e-04</internalNodes>
          <leafValues>
            -2.5995552539825439e-01 3.4246787428855896e-01</leafValues></_>
        <_>
          <internalNodes>
            0 -1 276 -1.0857474990189075e-03</internalNodes>
          <leafValues>
            -5.1672911643981934e-01 1.5217839181423187e-01</leafValues></_>
        <_>
          <internalNodes>
            0 -1 118 -7.7512562274932861e-02</internalNodes>
          <leafValues>
            -7.4864214658737183e-01 1.0527145862579346e-01</leafValues></_>
        <_>
          <internalNodes>
            0 -1 235 5.9475400485098362e-04</internalNodes>
          <leafValues>
            1.9811123609542847e-01 -3.6661693453788757e-01</leafValues></_>
        <_>
          <internalNodes>
            0 -1 193 -2.9483877122402191e-02</internalNodes>
          <leafValues>
            -5.4762113094329834e-01 1.4052291214466095e-01</leafValues></_></weakClassifiers></_>
    <!-- stage 10 -->
    <_>
      <maxWeakCount>15</maxWeakCount>
      <stageThreshold>-1.0412294864654541e+00</stageThreshold>
      <weakClassifiers>
        <_>
          <internalNodes>
            0 -1 210 1.9809324294328690e-03</internalNodes>
          <leafValues>
            -5.7601714134216309e-01 5.2023120224475861e-02</leafValues></_>
        <_>
          <internalNodes>
            0 -1 391 -8.7142863776534796e-04</internalNodes>
          <leafValues>
            2.7942615747451782e-01 -3.0550646781921387e-01</leafValues></_>
        <_>
          <internalNodes>
            0 -1 150 5.5217385292053223e-02</internalNodes>
          <leafValues>
            -3.2078629732131958e-01 2.8015559911727905e-01</leafValues></_>
        <_>
          <internalNodes>
            0 -1 46 -1.2243688106536865e-01</internalNodes>
          <leafValues>
            7.7966853976249695e-02 -9.7167170047760010e-01</leafValues></_>
        <_>
          <internalNodes>
            0 -1 168 -1.0767738567665219e-03</internalNodes>
          <leafValues>
            3.0035001039505005e-01 -2.3882077634334564e-01</leafValues></_>
        <_>
          <internalNodes>
            0 -1 130 -8.1292085815221071e-04</internalNodes>
          <leafValues>
            2.7956572175025940e-01 -2.9538339376449585e-01</leafValues></_>
        <_>
          <internalNodes>
            0 -1 272 -1.6121062799356878e-04</internalNodes>
          <leafValues>
            2.2907654941082001e-01 -3.6718079447746277e-01</leafValues></_>
        <_>
          <internalNodes>
            0 -1 264 -2.2655269131064415e-03</internalNodes>
          <leafValues>
            4.6026423573493958e-01 -1.5387126803398132e-01</leafValues></_>
        <_>
          <internalNodes>
            0 -1 388 -6.0691662132740021e-02</internalNodes>
          <leafValues>
            -8.6177843809127808e-01 8.2209184765815735e-02</leafValues></_>
        <_>
          <internalNodes>
            0 -1 148 3.3436743542551994e-03</internalNodes>
          <leafValues>
            -3.8661512732505798e-01 1.7855437099933624e-01</leafValues></_>
        <_>
          <internalNodes>
            0 -1 237 -1.3575165066868067e-03</internalNodes>
          <leafValues>
            4.7086828947067261e-01 -1.6093660891056061e-01</leafValues></_>
        <_>
          <internalNodes>
            0 -1 333 -3.2941666431725025e-03</internalNodes>
          <leafValues>
            2.6680767536163330e-01 -2.8008413314819336e-01</leafValues></_>
        <_>
          <internalNodes>
            0 -1 310 -5.2432843949645758e-04</internalNodes>
          <leafValues>
            3.8510495424270630e-01 -1.9092667102813721e-01</leafValues></_>
        <_>
          <internalNodes>
            0 -1 367 7.6854508370161057e-03</internalNodes>
          <leafValues>
            1.2434805184602737e-01 -6.4943337440490723e-01</leafValues></_>
        <_>
          <internalNodes>
            0 -1 328 -1.3184673152863979e-03</internalNodes>
          <leafValues>
            -3.5731151700019836e-01 2.1439862251281738e-01</leafValues></_></weakClassifiers></_>
    <!-- stage 11 -->
    <_>
      <maxWeakCount>17</maxWeakCount>
      <stageThreshold>-1.1247427463531494e+00</stageThreshold>
      <weakClassifiers>
        <_>
          <internalNodes>
            0 -1 220 -1.6548904776573181e-01</internalNodes>
          <leafValues>
            -1.9788917899131775e-01 -7.0881223678588867e-01</leafValues></_>
        <_>
          <internalNodes>
            0 -1 106 -1.4948645839467645e-03</internalNodes>
          <leafValues>
            1.6194425523281097e-01 -4.2207005620002747e-01</leafValues></_>
        <_>
          <internalNodes>
            0 -1 225 4.7255914658308029e-02</internalNodes>
          <leafValues>
            8.3181671798229218e-02 -7.6880884170532227e-01</leafValues></_>
        <_>
          <internalNodes>
            0 -1 24 1.1051326990127563e-01</internalNodes>
          <leafValues>
            1.1105114221572876e-01 -7.1570122241973877e-01</leafValues></_>
        <_>
          <internalNodes>
            0 -1 103 4.7285417094826698e-03</internalNodes>
          <leafValues>
            -3.5839188098907471e-01 2.6604127883911133e-01</leafValues></_>
        <_>
          <internalNodes>
            0 -1 240 -9.5531670376658440e-03</internalNodes>
          <leafValues>
            4.8724591732025146e-01 -1.9020393490791321e-01</leafValues></_>
        <_>
          <internalNodes>
            0 -1 352 -1.7218812135979533e-03</internalNodes>
          <leafValues>
            5.7661050558090210e-01 -1.1278601735830307e-01</leafValues></_>
        <_>
          <internalNodes>
            0 -1 433 6.7561096511781216e-04</internalNodes>
          <leafValues>
            -1.2459820508956909e-01 6.5317755937576294e-01</leafValues></_>
        <_>
          <internalNodes>
            0 -1 213 3.3482641447335482e-04</internalNodes>
          <leafValues>
            -1.3789126276969910e-01 4.8850822448730469e-01</leafValues></_>
        <_>
          <internalNodes>
            0 -1 152 8.6400791769847274e-04</internalNodes>
          <leafValues>
            -1.7857560515403748e-01 3.8359704613685608e-01</leafValues></_>
        <_>
          <internalNodes>
            0 -1 382 4.8712128773331642e-04</internalNodes>
          <leafValues>
            -2.0647816359996796e-01 3.7444299459457397e-01</leafValues></_>
        <_>
          <internalNodes>
            0 -1 250 -3.3327589335385710e-05</internalNodes>
          <leafValues>
            3.1424510478973389e-01 -2.6246446371078491e-01</leafValues></_>
        <_>
          <internalNodes>
            0 -1 252 -1.6317820176482201e-02</internalNodes>
          <leafValues>
            2.4798220396041870e-01 -3.2183721661567688e-01</leafValues></_>
        <_>
          <internalNodes>
            0 -1 38 3.0390522442758083e-04</internalNodes>
          <leafValues>
            -2.5531554222106934e-01 3.0925974249839783e-01</leafValues></_>
        <_>
          <internalNodes>
            0 -1 199 -1.5184497833251953e-01</internalNodes>
          <leafValues>
            -7.7997767925262451e-01 1.1685362458229065e-01</leafValues></_>
        <_>
          <internalNodes>
            0 -1 200 1.3971304520964622e-02</internalNodes>
          <leafValues>
            -1.2531781196594238e-01 6.9327491521835327e-01</leafValues></_>
        <_>
          <internalNodes>
            0 -1 347 -4.9560228944756091e-05</internalNodes>
          <leafValues>
            3.1249371170997620e-01 -2.6324427127838135e-01</leafValues></_></weakClassifiers></_>
    <!-- stage 12 -->
    <_>
      <maxWeakCount>16</maxWeakCount>
      <stageThreshold>-1.0463075637817383e+00</stageThreshold>
      <weakClassifiers>
        <_>
          <internalNodes>
            0 -1 54 7.0402990095317364e-03</internalNodes>
          <leafValues>
            -5.8490568399429321e-01 -1.5985129773616791e-01</leafValues></_>
        <_>
          <internalNodes>
            0 -1 116 1.7341056372970343e-03</internalNodes>
          <leafValues>
            1.1688479781150818e-01 -3.9509782195091248e-01</leafValues></_>
        <_>
          <internalNodes>
            0 -1 98 -2.4138250946998596e-01</internalNodes>
          <leafValues>
            4.8524755984544754e-02 -1.</leafValues></_>
        <_>
          <internalNodes>
            0 -1 162 2.0478504666243680e-05</internalNodes>
          <leafValues>
            -3.8355752825737000e-01 1.4490465819835663e-01</leafValues></_>
        <_>
          <internalNodes>
            0 -1 115 -5.6025886442512274e-04</internalNodes>
          <leafValues>
            -3.5396853089332581e-01 1.9995346665382385e-01</leafValues></_>
        <_>
          <internalNodes>
            0 -1 170 3.3776363125070930e-05</internalNodes>
          <leafValues>
            -2.4551007151603699e-01 2.4965092539787292e-01</leafValues></_>
        <_>
          <internalNodes>
            0 -1 404 5.2858161507174373e-04</internalNodes>
          <leafValues>
            -9.7310550510883331e-02 5.7050096988677979e-01</leafValues></_>
        <_>
          <internalNodes>
            0 -1 361 -1.4614976244047284e-03</internalNodes>
          <leafValues>
            -5.7128787040710449e-01 1.0824275761842728e-01</leafValues></_>
        <_>
          <internalNodes>
            0 -1 100 -4.8050478100776672e-02</internalNodes>
          <leafValues>
            -6.8264508247375488e-01 8.9408405125141144e-02</leafValues></_>
        <_>
          <internalNodes>
            0 -1 87 -3.3641720656305552e-03</internalNodes>
          <leafValues>
            2.9150643944740295e-01 -2.4503692984580994e-01</leafValues></_>
        <_>
          <internalNodes>
            0 -1 42 -1.5921115409582853e-03</internalNodes>
          <leafValues>
            3.3120533823966980e-01 -2.2375303506851196e-01</leafValues></_>
        <_>
          <internalNodes>
            0 -1 205 -1.3430465012788773e-02</internalNodes>
          <leafValues>
            4.9795222282409668e-01 -1.1697342991828918e-01</leafValues></_>
        <_>
          <internalNodes>
            0 -1 22 -5.2980175241827965e-03</internalNodes>
          <leafValues>
            -5.3850883245468140e-01 1.1439470201730728e-01</leafValues></_>
        <_>
          <internalNodes>
            0 -1 107 -1.4587381883757189e-05</internalNodes>
          <leafValues>
            3.2874947786331177e-01 -2.3056304454803467e-01</leafValues></_>
        <_>
          <internalNodes>
            0 -1 417 -3.9894782006740570e-02</internalNodes>
          <leafValues>
            -7.2930419445037842e-01 8.5401929914951324e-02</leafValues></_>
        <_>
          <internalNodes>
            0 -1 364 -1.9634248688817024e-02</internalNodes>
          <leafValues>
            -6.6945302486419678e-01 7.6639816164970398e-02</leafValues></_></weakClassifiers></_>
    <!-- stage 13 -->
    <_>
      <maxWeakCount>17</maxWeakCount>
      <stageThreshold>-1.3234192132949829e+00</stageThreshold>
      <weakClassifiers>
        <_>
          <internalNodes>
            0 -1 206 -1.4316750690340996e-02</internalNodes>
          <leafValues>
            -1.1538461595773697e-01 -6.8292683362960815e-01</leafValues></_>
        <_>
          <internalNodes>
            0 -1 88 9.4438646920025349e-04</internalNodes>
          <leafValues>
            1.1862152069807053e-01 -4.9794554710388184e-01</leafValues></_>
        <_>
          <internalNodes>
            0 -1 70 -2.8743183612823486e-01</internalNodes>
          <leafValues>
            8.9904092252254486e-02 -7.5093924999237061e-01</leafValues></_>
        <_>
          <internalNodes>
            0 -1 238 2.0622935891151428e-01</internalNodes>
          <leafValues>
            -5.6643523275852203e-02 8.8801020383834839e-01</leafValues></_>
        <_>
          <internalNodes>
            0 -1 266 -2.3478949442505836e-03</internalNodes>
          <leafValues>
            5.8672118186950684e-01 -1.0316607356071472e-01</leafValues></_>
        <_>
          <internalNodes>
            0 -1 218 6.2374153640121222e-04</internalNodes>
          <leafValues>
            1.5237933397293091e-01 -4.9590763449668884e-01</leafValues></_>
        <_>
          <internalNodes>
            0 -1 396 -8.6316926172003150e-04</internalNodes>
          <leafValues>
            2.9464364051818848e-01 -2.7182033658027649e-01</leafValues></_>
        <_>
          <internalNodes>
            0 -1 427 -2.6636554393917322e-03</internalNodes>
          <leafValues>
            -7.8280919790267944e-01 8.6451202630996704e-02</leafValues></_>
        <_>
          <internalNodes>
            0 -1 169 1.2985323555767536e-03</internalNodes>
          <leafValues>
            1.4963518083095551e-01 -4.4588446617126465e-01</leafValues></_>
        <_>
          <internalNodes>
            0 -1 90 -1.6958143096417189e-03</internalNodes>
          <leafValues>
            7.4390552937984467e-02 -9.6222281455993652e-01</leafValues></_>
        <_>
          <internalNodes>
            0 -1 111 -1.7006468624458648e-05</internalNodes>
          <leafValues>
            2.4295976758003235e-01 -3.2723692059516907e-01</leafValues></_>
        <_>
          <internalNodes>
            0 -1 58 -6.6578807309269905e-04</internalNodes>
          <leafValues>
            -5.1749044656753540e-01 1.4280524849891663e-01</leafValues></_>
        <_>
          <internalNodes>
            0 -1 36 3.3709322451613843e-05</internalNodes>
          <leafValues>
            -2.9021966457366943e-01 2.6734644174575806e-01</leafValues></_>
        <_>
          <internalNodes>
            0 -1 406 3.3754456671886146e-04</internalNodes>
          <leafValues>
            2.4408732354640961e-01 -3.1402820348739624e-01</leafValues></_>
        <_>
          <internalNodes>
            0 -1 195 4.9569606781005859e-02</internalNodes>
          <leafValues>
            -1.1950138211250305e-01 6.9599103927612305e-01</leafValues></_>
        <_>
          <internalNodes>
            0 -1 27 9.0850573033094406e-03</internalNodes>
          <leafValues>
            -1.4169596135616302e-01 5.9050720930099487e-01</leafValues></_>
        <_>
          <internalNodes>
            0 -1 300 -1.6501268744468689e-01</internalNodes>
          <leafValues>
            2.8940907120704651e-01 -3.0929252505302429e-01</leafValues></_></weakClassifiers></_>
    <!-- stage 14 -->
    <_>
      <maxWeakCount>15</maxWeakCount>
      <stageThreshold>-1.0456957817077637e+00</stageThreshold>
      <weakClassifiers>
        <_>
          <internalNodes>
            0 -1 332 -9.3686114996671677e-03</internalNodes>
          <leafValues>
            -5.5555555969476700e-02 -5.4347825050354004e-01</leafValues></_>
        <_>
          <internalNodes>
            0 -1 64 -1.0696348035708070e-03</internalNodes>
          <leafValues>
            -5.3465920686721802e-01 1.0733669996261597e-01</leafValues></_>
        <_>
          <internalNodes>
            0 -1 395 -1.6858290880918503e-02</internalNodes>
          <leafValues>
            -7.3404395580291748e-01 9.5056995749473572e-02</leafValues></_>
        <_>
          <internalNodes>
            0 -1 62 1.2602286413311958e-02</internalNodes>
          <leafValues>
            1.7465525865554810e-01 -5.4482758045196533e-01</leafValues></_>
        <_>
          <internalNodes>
            0 -1 302 1.5607804016326554e-05</internalNodes>
          <leafValues>
            -2.6818445324897766e-01 2.6006421446800232e-01</leafValues></_>
        <_>
          <internalNodes>
            0 -1 440 1.7733256390783936e-04</internalNodes>
          <leafValues>
            2.2776497900485992e-01 -3.2077628374099731e-01</leafValues></_>
        <_>
          <internalNodes>
            0 -1 219 4.6882545575499535e-04</internalNodes>
          <leafValues>
            1.5210819244384766e-01 -4.2439210414886475e-01</leafValues></_>
        <_>
          <internalNodes>
            0 -1 349 1.8039118731394410e-04</internalNodes>
          <leafValues>
            1.1797394603490829e-01 -5.1367318630218506e-01</leafValues></_>
        <_>
          <internalNodes>
            0 -1 79 -1.5873729716986418e-03</internalNodes>
          <leafValues>
            -4.9415835738182068e-01 1.3040137290954590e-01</leafValues></_>
        <_>
          <internalNodes>
            0 -1 338 1.6759364370955154e-05</internalNodes>
          <leafValues>
            -2.0775197446346283e-01 3.4493991732597351e-01</leafValues></_>
        <_>
          <internalNodes>
            0 -1 338 -1.8742231986834668e-05</internalNodes>
          <leafValues>
            3.2313147187232971e-01 -2.2970907390117645e-01</leafValues></_>
        <_>
          <internalNodes>
            0 -1 75 9.6774153644219041e-04</internalNodes>
          <leafValues>
            1.6682046651840210e-01 -3.8027390837669373e-01</leafValues></_>
        <_>
          <internalNodes>
            0 -1 189 2.5024794042110443e-02</internalNodes>
          <leafValues>
            7.8709356486797333e-02 -7.7215105295181274e-01</leafValues></_>
        <_>
          <internalNodes>
            0 -1 221 1.3633021712303162e-01</internalNodes>
          <leafValues>
            6.8526804447174072e-02 -7.9597830772399902e-01</leafValues></_>
        <_>
          <internalNodes>
            0 -1 334 -1.3459934853017330e-03</internalNodes>
          <leafValues>
            4.0533566474914551e-01 -1.8757726252079010e-01</leafValues></_></weakClassifiers></_>
    <!-- stage 15 -->
    <_>
      <maxWeakCount>21</maxWeakCount>
      <stageThreshold>-1.2137700319290161e+00</stageThreshold>
      <weakClassifiers>
        <_>
          <internalNodes>
            0 -1 425 -3.3349048346281052e-02</internalNodes>
          <leafValues>
            -4.9026548862457275e-01 2.2666667401790619e-01</leafValues></_>
        <_>
          <internalNodes>
            0 -1 268 -4.6203017234802246e-02</internalNodes>
          <leafValues>
            -8.0191081762313843e-01 6.0869920998811722e-02</leafValues></_>
        <_>
          <internalNodes>
            0 -1 159 1.2920177541673183e-03</internalNodes>
          <leafValues>
            -2.6032203435897827e-01 2.7715036273002625e-01</leafValues></_>
        <_>
          <internalNodes>
            0 -1 60 4.2542241862975061e-04</internalNodes>
          <leafValues>
            9.1101996600627899e-02 -4.2805242538452148e-01</leafValues></_>
        <_>
          <internalNodes>
            0 -1 357 -1.2354671489447355e-03</internalNodes>
          <leafValues>
            3.7154233455657959e-01 -1.5917026996612549e-01</leafValues></_>
        <_>
          <internalNodes>
            0 -1 69 4.6768342144787312e-03</internalNodes>
          <leafValues>
            1.0420820862054825e-01 -7.3669964075088501e-01</leafValues></_>
        <_>
          <internalNodes>
            0 -1 7 -3.6259260959923267e-03</internalNodes>
          <leafValues>
            7.6557165384292603e-01 -9.7905181348323822e-02</leafValues></_>
        <_>
          <internalNodes>
            0 -1 183 5.2932725520804524e-04</internalNodes>
          <leafValues>
            -1.2457660585641861e-01 4.1313409805297852e-01</leafValues></_>
        <_>
          <internalNodes>
            0 -1 249 7.4194900691509247e-02</internalNodes>
          <leafValues>
            -9.1790571808815002e-02 7.2538179159164429e-01</leafValues></_>
        <_>
          <internalNodes>
            0 -1 15 -4.6326993033289909e-03</internalNodes>
          <leafValues>
            -8.9430522918701172e-01 8.3998411893844604e-02</leafValues></_>
        <_>
          <internalNodes>
            0 -1 288 -3.2469332218170166e-03</internalNodes>
          <leafValues>
            1.9956579804420471e-01 -2.6664566993713379e-01</leafValues></_>
        <_>
          <internalNodes>
            0 -1 197 -1.7888069851323962e-03</internalNodes>
          <leafValues>
            -3.2166853547096252e-01 1.8883840739727020e-01</leafValues></_>
        <_>
          <internalNodes>
            0 -1 125 4.1132569313049316e-03</internalNodes>
          <leafValues>
            -1.1151858419179916e-01 6.2504440546035767e-01</leafValues></_>
        <_>
          <internalNodes>
            0 -1 208 -2.4951961822807789e-03</internalNodes>
          <leafValues>
            3.2874891161918640e-01 -1.7357693612575531e-01</leafValues></_>
        <_>
          <internalNodes>
            0 -1 322 -1.4140734449028969e-02</internalNodes>
          <leafValues>
            5.4531288146972656e-01 -1.2903244793415070e-01</leafValues></_>
        <_>
          <internalNodes>
            0 -1 222 -1.1628840118646622e-02</internalNodes>
          <leafValues>
            9.5676898956298828e-01 -5.9346668422222137e-02</leafValues></_>
        <_>
          <internalNodes>
            0 -1 259 -9.9818632006645203e-03</internalNodes>
          <leafValues>
            8.5098363459110260e-02 -8.2577693462371826e-01</leafValues></_>
        <_>
          <internalNodes>
            0 -1 255 -6.7753784358501434e-02</internalNodes>
          <leafValues>
            -6.9934165477752686e-01 6.7933149635791779e-02</leafValues></_>
        <_>
          <internalNodes>
            0 -1 198 3.4099365584552288e-03</internalNodes>
          <leafValues>
            -2.1658223867416382e-01 2.9074177145957947e-01</leafValues></_>
        <_>
          <internalNodes>
            0 -1 144 1.9229271856602281e-04</internalNodes>
          <leafValues>
            1.4757962524890900e-01 -4.3275591731071472e-01</leafValues></_>
        <_>
          <internalNodes>
            0 -1 296 -4.2307972908020020e-02</internalNodes>
          <leafValues>
            -4.3039071559906006e-01 1.5416316688060760e-01</leafValues></_></weakClassifiers></_>
    <!-- stage 16 -->
    <_>
      <maxWeakCount>18</maxWeakCount>
      <stageThreshold>-1.0692377090454102e+00</stageThreshold>
      <weakClassifiers>
        <_>
          <internalNodes>
            0 -1 442 -1.3675773516297340e-02</internalNodes>
          <leafValues>
            -4.8376068472862244e-01 4.1818180680274963e-01</leafValues></_>
        <_>
          <internalNodes>
            0 -1 299 -4.4123873114585876e-02</internalNodes>
          <leafValues>
            3.3875408768653870e-01 -2.0397447049617767e-01</leafValues></_>
        <_>
          <internalNodes>
            0 -1 47 -7.0761456154286861e-03</internalNodes>
          <leafValues>
            2.4003598093986511e-01 -2.7450135350227356e-01</leafValues></_>
        <_>
          <internalNodes>
            0 -1 128 6.9793481379747391e-03</internalNodes>
          <leafValues>
            -2.4937331676483154e-01 2.5098824501037598e-01</leafValues></_>
        <_>
          <internalNodes>
            0 -1 409 8.3587435074150562e-04</internalNodes>
          <leafValues>
            -1.0684334486722946e-01 4.8384055495262146e-01</leafValues></_>
        <_>
          <internalNodes>
            0 -1 244 -1.1840348597615957e-03</internalNodes>
          <leafValues>
            -3.6706399917602539e-01 1.5297487378120422e-01</leafValues></_>
        <_>
          <internalNodes>
            0 -1 203 -7.8408215194940567e-03</internalNodes>
          <leafValues>
            3.5139137506484985e-01 -1.7007091641426086e-01</leafValues></_>
        <_>
          <internalNodes>
            0 -1 254 -2.5726212188601494e-03</internalNodes>
          <leafValues>
            2.3210191726684570e-01 -2.4336731433868408e-01</leafValues></_>
        <_>
          <internalNodes>
            0 -1 39 9.7056906670331955e-03</internalNodes>
          <leafValues>
            8.9527405798435211e-02 -5.8451086282730103e-01</leafValues></_>
        <_>
          <internalNodes>
            0 -1 48 -3.6079064011573792e-02</internalNodes>
          <leafValues>
            -7.2129660844802856e-01 7.8711695969104767e-02</leafValues></_>
        <_>
          <internalNodes>
            0 -1 135 -3.1607423443347216e-03</internalNodes>
          <leafValues>
            1.6246055066585541e-01 -3.2673433423042297e-01</leafValues></_>
        <_>
          <internalNodes>
            0 -1 138 -1.1134035885334015e-03</internalNodes>
          <leafValues>
            3.6744788289070129e-01 -1.6783724725246429e-01</leafValues></_>
        <_>
          <internalNodes>
            0 -1 257 -2.3797016590833664e-02</internalNodes>
          <leafValues>
            -7.3123425245285034e-02 7.6485663652420044e-01</leafValues></_>
        <_>
          <internalNodes>
            0 -1 251 -4.6744400262832642e-01</internalNodes>
          <leafValues>
            4.6842762827873230e-01 -1.1884240806102753e-01</leafValues></_>
        <_>
          <internalNodes>
            0 -1 143 9.2222169041633606e-04</internalNodes>
          <leafValues>
            1.4478017389774323e-01 -4.3165427446365356e-01</leafValues></_>
        <_>
          <internalNodes>
            0 -1 25 1.7157577676698565e-03</internalNodes>
          <leafValues>
            -1.7183673381805420e-01 3.8862559199333191e-01</leafValues></_>
        <_>
          <internalNodes>
            0 -1 401 -3.5233068047091365e-05</internalNodes>
          <leafValues>
            3.0560445785522461e-01 -2.3181642591953278e-01</leafValues></_>
        <_>
          <internalNodes>
            0 -1 315 1.3137230416759849e-03</internalNodes>
          <leafValues>
            -1.1627838015556335e-01 5.9555864334106445e-01</leafValues></_></weakClassifiers></_>
    <!-- stage 17 -->
    <_>
      <maxWeakCount>17</maxWeakCount>
      <stageThreshold>-9.3316793441772461e-01</stageThreshold>
      <weakClassifiers>
        <_>
          <internalNodes>
            0 -1 153 1.1918652802705765e-02</internalNodes>
          <leafValues>
            -4.9812734127044678e-01 5.6603774428367615e-02</leafValues></_>
        <_>
          <internalNodes>
            0 -1 245 1.6194145428016782e-04</internalNodes>
          <leafValues>
            1.2436882406473160e-01 -4.2033240199089050e-01</leafValues></_>
        <_>
          <internalNodes>
            0 -1 381 5.5541604524478316e-04</internalNodes>
          <leafValues>
            1.2372852116823196e-01 -3.7349703907966614e-01</leafValues></_>
        <_>
          <internalNodes>
            0 -1 26 -9.4537856057286263e-03</internalNodes>
          <leafValues>
            -6.1190545558929443e-01 1.0947275906801224e-01</leafValues></_>
        <_>
          <internalNodes>
            0 -1 317 6.9677880674134940e-05</internalNodes>
          <leafValues>
            -2.2283104062080383e-01 2.2427372634410858e-01</leafValues></_>
        <_>
          <internalNodes>
            0 -1 379 -3.0408284510485828e-04</internalNodes>
          <leafValues>
            -2.9050230979919434e-01 2.0605430006980896e-01</leafValues></_>
        <_>
          <internalNodes>
            0 -1 441 -3.5416818718658760e-05</internalNodes>
          <leafValues>
            2.9989221692085266e-01 -1.9065991044044495e-01</leafValues></_>
        <_>
          <internalNodes>
            0 -1 411 1.1145203374326229e-02</internalNodes>
          <leafValues>
            -6.8515792489051819e-02 7.7695238590240479e-01</leafValues></_>
        <_>
          <internalNodes>
            0 -1 140 -2.1118260920047760e-03</internalNodes>
          <leafValues>
            7.2752818465232849e-02 -8.5847240686416626e-01</leafValues></_>
        <_>
          <internalNodes>
            0 -1 405 1.2963854242116213e-03</internalNodes>
          <leafValues>
            1.5411084890365601e-01 -3.3298406004905701e-01</leafValues></_>
        <_>
          <internalNodes>
            0 -1 2 -7.6000347733497620e-02</internalNodes>
          <leafValues>
            -8.9956291019916534e-02 6.4561003446578979e-01</leafValues></_>
        <_>
          <internalNodes>
            0 -1 163 2.9217740520834923e-03</internalNodes>
          <leafValues>
            1.3367895781993866e-01 -4.2045623064041138e-01</leafValues></_>
        <_>
          <internalNodes>
            0 -1 80 -1.6139040235430002e-03</internalNodes>
          <leafValues>
            4.0708553791046143e-01 -1.4513859152793884e-01</leafValues></_>
        <_>
          <internalNodes>
            0 -1 390 -9.5534455031156540e-03</internalNodes>
          <leafValues>
            -5.4424321651458740e-01 1.0627781599760056e-01</leafValues></_>
        <_>
          <internalNodes>
            0 -1 443 -2.3339694962487556e-05</internalNodes>
          <leafValues>
            2.4151183664798737e-01 -2.3724769055843353e-01</leafValues></_>
        <_>
          <internalNodes>
            0 -1 295 8.3506118971854448e-04</internalNodes>
          <leafValues>
            1.5294168889522552e-01 -3.9021372795104980e-01</leafValues></_>
        <_>
          <internalNodes>
            0 -1 394 1.0744716972112656e-02</internalNodes>
          <leafValues>
            9.6934512257575989e-02 -5.4086929559707642e-01</leafValues></_></weakClassifiers></_>
    <!-- stage 18 -->
    <_>
      <maxWeakCount>21</maxWeakCount>
      <stageThreshold>-1.1229256391525269e+00</stageThreshold>
      <weakClassifiers>
        <_>
          <internalNodes>
            0 -1 1 -2.4590991437435150e-02</internalNodes>
          <leafValues>
            -4.6507665514945984e-01 2.4528302252292633e-01</leafValues></_>
        <_>
          <internalNodes>
            0 -1 241 -1.5505012124776840e-03</internalNodes>
          <leafValues>
            1.9930568337440491e-01 -2.2265627980232239e-01</leafValues></_>
        <_>
          <internalNodes>
            0 -1 346 -2.4149264208972454e-03</internalNodes>
          <leafValues>
            4.9211183190345764e-01 -8.9311622083187103e-02</leafValues></_>
        <_>
          <internalNodes>
            0 -1 314 1.5155971595959272e-05</internalNodes>
          <leafValues>
            -2.1177457273006439e-01 2.2372743487358093e-01</leafValues></_>
        <_>
          <internalNodes>
            0 -1 348 -6.8572995951399207e-04</internalNodes>
          <leafValues>
            -4.0754836797714233e-01 1.1333277821540833e-01</leafValues></_>
        <_>
          <internalNodes>
            0 -1 192 2.8772689402103424e-03</internalNodes>
          <leafValues>
            -6.9164976477622986e-02 5.5539649724960327e-01</leafValues></_>
        <_>
          <internalNodes>
            0 -1 109 4.2308745905756950e-03</internalNodes>
          <leafValues>
            -1.5446954965591431e-01 3.4058091044425964e-01</leafValues></_>
        <_>
          <internalNodes>
            0 -1 380 3.7189692375250161e-04</internalNodes>
          <leafValues>
            1.3958525657653809e-01 -4.5837253332138062e-01</leafValues></_>
        <_>
          <internalNodes>
            0 -1 435 -3.2226096664089710e-05</internalNodes>
          <leafValues>
            2.5582185387611389e-01 -2.1666555106639862e-01</leafValues></_>
        <_>
          <internalNodes>
            0 -1 400 -8.8048010366037488e-04</internalNodes>
          <leafValues>
            -3.0366906523704529e-01 1.6659232974052429e-01</leafValues></_>
        <_>
          <internalNodes>
            0 -1 377 -1.2588619720190763e-03</internalNodes>
          <leafValues>
            7.5621843338012695e-01 -8.3268187940120697e-02</leafValues></_>
        <_>
          <internalNodes>
            0 -1 187 -1.7006468624458648e-05</internalNodes>
          <leafValues>
            2.9760149121284485e-01 -1.6016611456871033e-01</leafValues></_>
        <_>
          <internalNodes>
            0 -1 407 -6.7251995205879211e-03</internalNodes>
          <leafValues>
            1.9109673798084259e-01 -2.9868301749229431e-01</leafValues></_>
        <_>
          <internalNodes>
            0 -1 339 -2.6399483904242516e-02</internalNodes>
          <leafValues>
            -1.2494583427906036e-01 4.9803012609481812e-01</leafValues></_>
        <_>
          <internalNodes>
            0 -1 353 -5.8892279863357544e-02</internalNodes>
          <leafValues>
            4.9175029993057251e-01 -1.3158795237541199e-01</leafValues></_>
        <_>
          <internalNodes>
            0 -1 307 -2.3377411998808384e-03</internalNodes>
          <leafValues>
            3.4690821170806885e-01 -1.6687382757663727e-01</leafValues></_>
        <_>
          <internalNodes>
            0 -1 71 -2.6957080699503422e-03</internalNodes>
          <leafValues>
            4.1254574060440063e-01 -1.3135601580142975e-01</leafValues></_>
        <_>
          <internalNodes>
            0 -1 384 1.7433390894439071e-05</internalNodes>
          <leafValues>
            -2.5608456134796143e-01 2.6165825128555298e-01</leafValues></_>
        <_>
          <internalNodes>
            0 -1 398 3.1652751204092056e-05</internalNodes>
          <leafValues>
            -2.3422271013259888e-01 2.5445002317428589e-01</leafValues></_>
        <_>
          <internalNodes>
            0 -1 292 1.5327532310038805e-03</internalNodes>
          <leafValues>
            -7.4138790369033813e-02 7.5982666015625000e-01</leafValues></_>
        <_>
          <internalNodes>
            0 -1 182 -9.5090784132480621e-02</internalNodes>
          <leafValues>
            5.0522929430007935e-01 -1.1023280024528503e-01</leafValues></_></weakClassifiers></_>
    <!-- stage 19 -->
    <_>
      <maxWeakCount>22</maxWeakCount>
      <stageThreshold>-1.0158138275146484e+00</stageThreshold>
      <weakClassifiers>
        <_>
          <internalNodes>
            0 -1 297 8.3057954907417297e-03</internalNodes>
          <leafValues>
            -4.6089848875999451e-01 4.3589743971824646e-01</leafValues></_>
        <_>
          <internalNodes>
            0 -1 321 5.8025226462632418e-04</internalNodes>
          <leafValues>
            1.0254910588264465e-01 -4.0225273370742798e-01</leafValues></_>
        <_>
          <internalNodes>
            0 -1 304 2.8199008665978909e-03</internalNodes>
          <leafValues>
            1.3643071055412292e-01 -3.5734504461288452e-01</leafValues></_>
        <_>
          <internalNodes>
            0 -1 399 1.0408556554466486e-03</internalNodes>
          <leafValues>
            -1.5271063148975372e-01 3.4736114740371704e-01</leafValues></_>
        <_>
          <internalNodes>
            0 -1 289 4.0475511923432350e-03</internalNodes>
          <leafValues>
            -1.0862825810909271e-01 6.0642641782760620e-01</leafValues></_>
        <_>
          <internalNodes>
            0 -1 243 -1.2401487678289413e-02</internalNodes>
          <leafValues>
            -3.9875409007072449e-01 1.2499253451824188e-01</leafValues></_>
        <_>
          <internalNodes>
            0 -1 242 1.1254874989390373e-03</internalNodes>
          <leafValues>
            -1.0130666941404343e-01 4.6303471922874451e-01</leafValues></_>
        <_>
          <internalNodes>
            0 -1 175 -4.1973753832280636e-03</internalNodes>
          <leafValues>
            1.8378698825836182e-01 -2.9145634174346924e-01</leafValues></_>
        <_>
          <internalNodes>
            0 -1 294 2.4700202629901469e-04</internalNodes>
          <leafValues>
            2.2159673273563385e-01 -2.3874765634536743e-01</leafValues></_>
        <_>
          <internalNodes>
            0 -1 139 5.7441843673586845e-03</internalNodes>
          <leafValues>
            1.4712265133857727e-01 -3.3186632394790649e-01</leafValues></_>
        <_>
          <internalNodes>
            0 -1 6 -2.8953212313354015e-03</internalNodes>
          <leafValues>
            8.0860167741775513e-01 -6.0231558978557587e-02</leafValues></_>
        <_>
          <internalNodes>
            0 -1 110 1.3944081729277968e-03</internalNodes>
          <leafValues>
            -8.8444769382476807e-02 4.9995505809783936e-01</leafValues></_>
        <_>
          <internalNodes>
            0 -1 78 -2.4032176006585360e-03</internalNodes>
          <leafValues>
            -7.6969975233078003e-01 8.8543362915515900e-02</leafValues></_>
        <_>
          <internalNodes>
            0 -1 262 -3.0313726514577866e-02</internalNodes>
          <leafValues>
            1. -7.7885113656520844e-02</leafValues></_>
        <_>
          <internalNodes>
            0 -1 172 -4.4609643518924713e-02</internalNodes>
          <leafValues>
            -5.1639270782470703e-01 1.2387739866971970e-01</leafValues></_>
        <_>
          <internalNodes>
            0 -1 124 -1.1699092574417591e-03</internalNodes>
          <leafValues>
            2.4940791726112366e-01 -2.2386054694652557e-01</leafValues></_>
        <_>
          <internalNodes>
            0 -1 413 -3.6634877324104309e-03</internalNodes>
          <leafValues>
            9.3819314241409302e-01 -5.0490915775299072e-02</leafValues></_>
        <_>
          <internalNodes>
            0 -1 439 2.7382287662476301e-03</internalNodes>
          <leafValues>
            1.0594075173139572e-01 -6.2927556037902832e-01</leafValues></_>
        <_>
          <internalNodes>
            0 -1 93 -1.3024448417127132e-03</internalNodes>
          <leafValues>
            7.6859444379806519e-01 -7.8827396035194397e-02</leafValues></_>
        <_>
          <internalNodes>
            0 -1 248 -1.3201083056628704e-03</internalNodes>
          <leafValues>
            -4.1447836160659790e-01 1.4013557136058807e-01</leafValues></_>
        <_>
          <internalNodes>
            0 -1 271 3.5794330760836601e-03</internalNodes>
          <leafValues>
            -9.3257918953895569e-02 6.2438619136810303e-01</leafValues></_>
        <_>
          <internalNodes>
            0 -1 86 4.7252099961042404e-02</internalNodes>
          <leafValues>
            1.5691578388214111e-01 -4.3822419643402100e-01</leafValues></_></weakClassifiers></_>
    <!-- stage 20 -->
    <_>
      <maxWeakCount>20</maxWeakCount>
      <stageThreshold>-1.0780659914016724e+00</stageThreshold>
      <weakClassifiers>
        <_>
          <internalNodes>
            0 -1 12 -7.8739039599895477e-03</internalNodes>
          <leafValues>
            5.3846156597137451e-01 -4.4625407457351685e-01</leafValues></_>
        <_>
          <internalNodes>
            0 -1 429 -9.0768307447433472e-02</internalNodes>
          <leafValues>
            -8.4137338399887085e-01 8.2898382097482681e-03</leafValues></_>
        <_>
          <internalNodes>
            0 -1 10 1.7165821045637131e-02</internalNodes>
          <leafValues>
            1.1974147707223892e-01 -4.6112355589866638e-01</leafValues></_>
        <_>
          <internalNodes>
            0 -1 160 -2.9926568269729614e-02</internalNodes>
          <leafValues>
            -6.3601601123809814e-01 8.8839717209339142e-02</leafValues></_>
        <_>
          <internalNodes>
            0 -1 341 -6.0722022317349911e-03</internalNodes>
          <leafValues>
            2.1331532299518585e-01 -2.4558535218238831e-01</leafValues></_>
        <_>
          <internalNodes>
            0 -1 343 -8.0925499787554145e-04</internalNodes>
          <leafValues>
            4.3286457657814026e-01 -1.2359560281038284e-01</leafValues></_>
        <_>
          <internalNodes>
            0 -1 19 -2.1371436305344105e-03</internalNodes>
          <leafValues>
            -4.2937287688255310e-01 1.4331088960170746e-01</leafValues></_>
        <_>
          <internalNodes>
            0 -1 129 2.3713575210422277e-03</internalNodes>
          <leafValues>
            1.6582776606082916e-01 -2.9303625226020813e-01</leafValues></_>
        <_>
          <internalNodes>
            0 -1 147 -7.8088968992233276e-02</internalNodes>
          <leafValues>
            -6.0174936056137085e-01 9.7973972558975220e-02</leafValues></_>
        <_>
          <internalNodes>
            0 -1 386 -4.5315092429518700e-03</internalNodes>
          <leafValues>
            5.9409737586975098e-01 -1.0346049815416336e-01</leafValues></_>
        <_>
          <internalNodes>
            0 -1 40 -1.0891506448388100e-02</internalNodes>
          <leafValues>
            -7.4670058488845825e-01 7.8936651349067688e-02</leafValues></_>
        <_>
          <internalNodes>
            0 -1 190 -2.5597718195058405e-04</internalNodes>
          <leafValues>
            -4.5475584268569946e-01 9.1243118047714233e-02</leafValues></_>
        <_>
          <internalNodes>
            0 -1 359 1.4272271655499935e-03</internalNodes>
          <leafValues>
            -1.3394702970981598e-01 3.9193278551101685e-01</leafValues></_>
        <_>
          <internalNodes>
            0 -1 389 -4.5726103708148003e-03</internalNodes>
          <leafValues>
            2.7997863292694092e-01 -1.8591691553592682e-01</leafValues></_>
        <_>
          <internalNodes>
            0 -1 136 4.6551534906029701e-03</internalNodes>
          <leafValues>
            -3.1893622875213623e-01 1.9419617950916290e-01</leafValues></_>
        <_>
          <internalNodes>
            0 -1 303 -3.0464168637990952e-02</internalNodes>
          <leafValues>
            -5.1036107540130615e-01 1.0427062958478928e-01</leafValues></_>
        <_>
          <internalNodes>
            0 -1 316 -2.1429922431707382e-02</internalNodes>
          <leafValues>
            4.4169393181800842e-01 -1.4634434878826141e-01</leafValues></_>
        <_>
          <internalNodes>
            0 -1 134 1.3647243380546570e-02</internalNodes>
          <leafValues>
            7.4611403048038483e-02 -7.1434551477432251e-01</leafValues></_>
        <_>
          <internalNodes>
            0 -1 246 1.9441552460193634e-02</internalNodes>
          <leafValues>
            -7.7275432646274567e-02 8.4703171253204346e-01</leafValues></_>
        <_>
          <internalNodes>
            0 -1 113 3.9498892147094011e-04</internalNodes>
          <leafValues>
            1.7352312803268433e-01 -3.7382310628890991e-01</leafValues></_></weakClassifiers></_>
    <!-- stage 21 -->
    <_>
      <maxWeakCount>23</maxWeakCount>
      <stageThreshold>-1.0456086397171021e+00</stageThreshold>
      <weakClassifiers>
        <_>
          <internalNodes>
            0 -1 336 3.9503653533756733e-03</internalNodes>
          <leafValues>
            -4.4426494836807251e-01 7.1428573131561279e-01</leafValues></_>
        <_>
          <internalNodes>
            0 -1 104 2.4735979968681931e-04</internalNodes>
          <leafValues>
            -1.8578937649726868e-01 3.2812461256980896e-01</leafValues></_>
        <_>
          <internalNodes>
            0 -1 133 -4.6808000653982162e-02</internalNodes>
          <leafValues>
            -4.7653770446777344e-01 1.3070544600486755e-01</leafValues></_>
        <_>
          <internalNodes>
            0 -1 375 7.0140010211616755e-04</internalNodes>
          <leafValues>
            1.2419856339693069e-01 -4.3441244959831238e-01</leafValues></_>
        <_>
          <internalNodes>
            0 -1 123 -4.0343804284930229e-03</internalNodes>
          <leafValues>
            -1. 6.2767848372459412e-02</leafValues></_>
        <_>
          <internalNodes>
            0 -1 280 -1.0494401678442955e-02</internalNodes>
          <leafValues>
            4.5403361320495605e-01 -1.1796800792217255e-01</leafValues></_>
        <_>
          <internalNodes>
            0 -1 390 5.7840947993099689e-03</internalNodes>
          <leafValues>
            6.4483158290386200e-02 -7.2671926021575928e-01</leafValues></_>
        <_>
          <internalNodes>
            0 -1 430 -1.0585986310616136e-03</internalNodes>
          <leafValues>
            5.5339789390563965e-01 -8.8726617395877838e-02</leafValues></_>
        <_>
          <internalNodes>
            0 -1 20 -9.2385686933994293e-02</internalNodes>
          <leafValues>
            -8.2245981693267822e-01 5.6952279061079025e-02</leafValues></_>
        <_>
          <internalNodes>
            0 -1 209 7.1519432822242379e-04</internalNodes>
          <leafValues>
            -2.1674787998199463e-01 2.9079020023345947e-01</leafValues></_>
        <_>
          <internalNodes>
            0 -1 234 -7.7401464805006981e-03</internalNodes>
          <leafValues>
            5.8667153120040894e-01 -1.0506726801395416e-01</leafValues></_>
        <_>
          <internalNodes>
            0 -1 211 -2.5462862104177475e-03</internalNodes>
          <leafValues>
            5.3050130605697632e-01 -1.0172396898269653e-01</leafValues></_>
        <_>
          <internalNodes>
            0 -1 233 -1.6454184660688043e-03</internalNodes>
          <leafValues>
            -3.3701997995376587e-01 1.4971935749053955e-01</leafValues></_>
        <_>
          <internalNodes>
            0 -1 277 5.1215533167123795e-03</internalNodes>
          <leafValues>
            -1.9920770823955536e-01 2.7102398872375488e-01</leafValues></_>
        <_>
          <internalNodes>
            0 -1 428 3.7143332883715630e-03</internalNodes>
          <leafValues>
            6.0928270220756531e-02 -8.4287881851196289e-01</leafValues></_>
        <_>
          <internalNodes>
            0 -1 424 1.2262663221918046e-04</internalNodes>
          <leafValues>
            -2.3664753139019012e-01 2.9400834441184998e-01</leafValues></_>
        <_>
          <internalNodes>
            0 -1 145 1.4587381883757189e-05</internalNodes>
          <leafValues>
            -2.6411777734756470e-01 2.3814293742179871e-01</leafValues></_>
        <_>
          <internalNodes>
            0 -1 402 3.3338728826493025e-05</internalNodes>
          <leafValues>
            -1.8843698501586914e-01 2.7213388681411743e-01</leafValues></_>
        <_>
          <internalNodes>
            0 -1 121 7.8784480690956116e-02</internalNodes>
          <leafValues>
            8.2278244197368622e-02 -6.6402256488800049e-01</leafValues></_>
        <_>
          <internalNodes>
            0 -1 74 -6.2233989592641592e-04</internalNodes>
          <leafValues>
            4.9646162986755371e-01 -1.2799113988876343e-01</leafValues></_>
        <_>
          <internalNodes>
            0 -1 290 -1.0261405259370804e-04</internalNodes>
          <leafValues>
            -2.3666965961456299e-01 2.1308781206607819e-01</leafValues></_>
        <_>
          <internalNodes>
            0 -1 204 -1.3417354226112366e-01</internalNodes>
          <leafValues>
            -5.5397272109985352e-01 9.6733354032039642e-02</leafValues></_>
        <_>
          <internalNodes>
            0 -1 34 -1.7258331179618835e-01</internalNodes>
          <leafValues>
            2.8337126970291138e-01 -2.4172453582286835e-01</leafValues></_></weakClassifiers></_>
    <!-- stage 22 -->
    <_>
      <maxWeakCount>20</maxWeakCount>
      <stageThreshold>-1.0744496583938599e+00</stageThreshold>
      <weakClassifiers>
        <_>
          <internalNodes>
            0 -1 256 -7.6382784172892570e-03</internalNodes>
          <leafValues>
            3.0303031206130981e-02 -4.8613679409027100e-01</leafValues></_>
        <_>
          <internalNodes>
            0 -1 434 -1.1549342889338732e-03</internalNodes>
          <leafValues>
            4.5265430212020874e-01 -1.2571945786476135e-01</leafValues></_>
        <_>
          <internalNodes>
            0 -1 415 -5.3699784912168980e-03</internalNodes>
          <leafValues>
            -3.5979962348937988e-01 1.2602426111698151e-01</leafValues></_>
        <_>
          <internalNodes>
            0 -1 84 -1.4021191745996475e-02</internalNodes>
          <leafValues>
            -7.4384695291519165e-01 5.8265861123800278e-02</leafValues></_>
        <_>
          <internalNodes>
            0 -1 298 2.0383980590850115e-03</internalNodes>
          <leafValues>
            -1.3343442976474762e-01 2.9617804288864136e-01</leafValues></_>
        <_>
          <internalNodes>
            0 -1 50 -1.1399774812161922e-03</internalNodes>
          <leafValues>
            4.7680237889289856e-01 -1.0087818652391434e-01</leafValues></_>
        <_>
          <internalNodes>
            0 -1 236 -1.4515196904540062e-02</internalNodes>
          <leafValues>
            1.4905883371829987e-01 -3.0446469783782959e-01</leafValues></_>
        <_>
          <internalNodes>
            0 -1 21 5.4040015675127506e-03</internalNodes>
          <leafValues>
            1.3317213952541351e-01 -4.0261322259902954e-01</leafValues></_>
        <_>
          <internalNodes>
            0 -1 282 4.6893745660781860e-02</internalNodes>
          <leafValues>
            -4.6846497803926468e-02 8.6347419023513794e-01</leafValues></_>
        <_>
          <internalNodes>
            0 -1 92 9.5942418556660414e-04</internalNodes>
          <leafValues>
            1.3345825672149658e-01 -3.5044813156127930e-01</leafValues></_>
        <_>
          <internalNodes>
            0 -1 0 9.5992917194962502e-03</internalNodes>
          <leafValues>
            -9.7749769687652588e-02 5.7491034269332886e-01</leafValues></_>
        <_>
          <internalNodes>
            0 -1 265 3.0344989150762558e-02</internalNodes>
          <leafValues>
            -5.7911340147256851e-02 7.6478916406631470e-01</leafValues></_>
        <_>
          <internalNodes>
            0 -1 383 1.0278807894792408e-04</internalNodes>
          <leafValues>
            1.8364058434963226e-01 -2.9324758052825928e-01</leafValues></_>
        <_>
          <internalNodes>
            0 -1 14 5.5052414536476135e-02</internalNodes>
          <leafValues>
            -1.0630347579717636e-01 4.8918634653091431e-01</leafValues></_>
        <_>
          <internalNodes>
            0 -1 108 -8.6033993284218013e-05</internalNodes>
          <leafValues>
            2.5669080018997192e-01 -1.8549130856990814e-01</leafValues></_>
        <_>
          <internalNodes>
            0 -1 105 2.1769902668893337e-03</internalNodes>
          <leafValues>
            -7.3918938636779785e-02 5.8813822269439697e-01</leafValues></_>
        <_>
          <internalNodes>
            0 -1 55 -3.1529306434094906e-03</internalNodes>
          <leafValues>
            2.3772065341472626e-01 -2.3748131096363068e-01</leafValues></_>
        <_>
          <internalNodes>
            0 -1 164 3.9722151122987270e-03</internalNodes>
          <leafValues>
            1.7273271083831787e-01 -3.0043572187423706e-01</leafValues></_>
        <_>
          <internalNodes>
            0 -1 155 1.6352655366063118e-03</internalNodes>
          <leafValues>
            -9.9520720541477203e-02 5.3769832849502563e-01</leafValues></_>
        <_>
          <internalNodes>
            0 -1 230 -7.9876631498336792e-02</internalNodes>
          <leafValues>
            1.2328784912824631e-01 -4.7393041849136353e-01</leafValues></_></weakClassifiers></_>
    <!-- stage 23 -->
    <_>
      <maxWeakCount>20</maxWeakCount>
      <stageThreshold>-9.3269145488739014e-01</stageThreshold>
      <weakClassifiers>
        <_>
          <internalNodes>
            0 -1 72 1.0637617669999599e-02</internalNodes>
          <leafValues>
            -4.5728641748428345e-01 3.0232557654380798e-01</leafValues></_>
        <_>
          <internalNodes>
            0 -1 258 -1.3996150810271502e-03</internalNodes>
          <leafValues>
            -3.4641134738922119e-01 1.0001493990421295e-01</leafValues></_>
        <_>
          <internalNodes>
            0 -1 207 9.2042749747633934e-03</internalNodes>
          <leafValues>
            -1.3952487707138062e-01 3.1974032521247864e-01</leafValues></_>
        <_>
          <internalNodes>
            0 -1 202 1.7669357359409332e-02</internalNodes>
          <leafValues>
            -7.3885068297386169e-02 6.8161982297897339e-01</leafValues></_>
        <_>
          <internalNodes>
            0 -1 232 1.1698175512719899e-04</internalNodes>
          <leafValues>
            1.5104037523269653e-01 -3.3620193600654602e-01</leafValues></_>
        <_>
          <internalNodes>
            0 -1 82 5.6599827075842768e-05</internalNodes>
          <leafValues>
            -1.6119012236595154e-01 2.6956951618194580e-01</leafValues></_>
        <_>
          <internalNodes>
            0 -1 114 -1.6770203728810884e-05</internalNodes>
          <leafValues>
            2.8941535949707031e-01 -1.5787880122661591e-01</leafValues></_>
        <_>
          <internalNodes>
            0 -1 217 -1.0750955902040005e-02</internalNodes>
          <leafValues>
            -3.2769106328487396e-02 8.7785208225250244e-01</leafValues></_>
        <_>
          <internalNodes>
            0 -1 63 -1.6759364370955154e-05</internalNodes>
          <leafValues>
            2.2489522397518158e-01 -2.1264740824699402e-01</leafValues></_>
        <_>
          <internalNodes>
            0 -1 378 -1.4477544464170933e-03</internalNodes>
          <leafValues>
            -3.0472624301910400e-01 1.6789844632148743e-01</leafValues></_>
        <_>
          <internalNodes>
            0 -1 279 1.4587381883757189e-05</internalNodes>
          <leafValues>
            -1.7906999588012695e-01 3.1321308016777039e-01</leafValues></_>
        <_>
          <internalNodes>
            0 -1 436 8.9386431500315666e-04</internalNodes>
          <leafValues>
            -9.1319166123867035e-02 7.3468583822250366e-01</leafValues></_>
        <_>
          <internalNodes>
            0 -1 337 4.1217580437660217e-03</internalNodes>
          <leafValues>
            1.3515865802764893e-01 -5.0394183397293091e-01</leafValues></_>
        <_>
          <internalNodes>
            0 -1 126 -7.4570872820913792e-03</internalNodes>
          <leafValues>
            4.4143366813659668e-01 -1.2227033823728561e-01</leafValues></_>
        <_>
          <internalNodes>
            0 -1 119 -3.4687211737036705e-03</internalNodes>
          <leafValues>
            -5.2472966909408569e-01 1.1716862767934799e-01</leafValues></_>
        <_>
          <internalNodes>
            0 -1 120 -9.2647541314363480e-03</internalNodes>
          <leafValues>
            -5.7831126451492310e-01 8.6296550929546356e-02</leafValues></_>
        <_>
          <internalNodes>
            0 -1 275 -1.4536338312609587e-05</internalNodes>
          <leafValues>
            2.7389022707939148e-01 -1.9196712970733643e-01</leafValues></_>
        <_>
          <internalNodes>
            0 -1 188 1.3107627164572477e-03</internalNodes>
          <leafValues>
            1.0427144169807434e-01 -4.6515002846717834e-01</leafValues></_>
        <_>
          <internalNodes>
            0 -1 224 -2.3825264070183039e-03</internalNodes>
          <leafValues>
            6.7948418855667114e-01 -7.8440934419631958e-02</leafValues></_>
        <_>
          <internalNodes>
            0 -1 132 -6.0931433836231008e-05</internalNodes>
          <leafValues>
            3.0869108438491821e-01 -1.4845637977123260e-01</leafValues></_></weakClassifiers></_>
    <!-- stage 24 -->
    <_>
      <maxWeakCount>22</maxWeakCount>
      <stageThreshold>-1.1091965436935425e+00</stageThreshold>
      <weakClassifiers>
        <_>
          <internalNodes>
            0 -1 176 -3.1228464841842651e-01</internalNodes>
          <leafValues>
            3.4999999403953552e-01 -4.5666667819023132e-01</leafValues></_>
        <_>
          <internalNodes>
            0 -1 165 -7.2287889197468758e-03</internalNodes>
          <leafValues>
            -1. 1.5041261911392212e-02</leafValues></_>
        <_>
          <internalNodes>
            0 -1 351 -4.8890709877014160e-02</internalNodes>
          <leafValues>
            -4.6713241934776306e-01 9.9327735602855682e-02</leafValues></_>
        <_>
          <internalNodes>
            0 -1 247 1.5452081570401788e-03</internalNodes>
          <leafValues>
            1.3055977225303650e-01 -3.1035396456718445e-01</leafValues></_>
        <_>
          <internalNodes>
            0 -1 57 -2.0031342282891273e-03</internalNodes>
          <leafValues>
            3.5947078466415405e-01 -1.0726422816514969e-01</leafValues></_>
        <_>
          <internalNodes>
            0 -1 356 1.8288481805939227e-04</internalNodes>
          <leafValues>
            1.6223403811454773e-01 -2.5836780667304993e-01</leafValues></_>
        <_>
          <internalNodes>
            0 -1 368 -1.7725016921758652e-02</internalNodes>
          <leafValues>
            -9.0969932079315186e-01 5.9181582182645798e-02</leafValues></_>
        <_>
          <internalNodes>
            0 -1 81 3.2581744017079473e-04</internalNodes>
          <leafValues>
            -3.6478817462921143e-01 1.0865309834480286e-01</leafValues></_>
        <_>
          <internalNodes>
            0 -1 354 1.1446453630924225e-02</internalNodes>
          <leafValues>
            7.8195340931415558e-02 -5.2681171894073486e-01</leafValues></_>
        <_>
          <internalNodes>
            0 -1 326 2.4670702405273914e-03</internalNodes>
          <leafValues>
            -1.5251560509204865e-01 3.2424619793891907e-01</leafValues></_>
        <_>
          <internalNodes>
            0 -1 365 5.6318061979254708e-05</internalNodes>
          <leafValues>
            -2.0265124738216400e-01 2.2435101866722107e-01</leafValues></_>
        <_>
          <internalNodes>
            0 -1 301 1.2989009264856577e-03</internalNodes>
          <leafValues>
            1.7411920428276062e-01 -3.1317520141601563e-01</leafValues></_>
        <_>
          <internalNodes>
            0 -1 32 -2.5176998227834702e-02</internalNodes>
          <leafValues>
            1.9377341866493225e-01 -2.7658680081367493e-01</leafValues></_>
        <_>
          <internalNodes>
            0 -1 267 -1.4436298515647650e-03</internalNodes>
          <leafValues>
            3.3247500658035278e-01 -1.4781701564788818e-01</leafValues></_>
        <_>
          <internalNodes>
            0 -1 376 -1.6792661044746637e-03</internalNodes>
          <leafValues>
            -3.4891292452812195e-01 1.3776770234107971e-01</leafValues></_>
        <_>
          <internalNodes>
            0 -1 231 -3.6626882851123810e-02</internalNodes>
          <leafValues>
            -1.5961216390132904e-01 3.3392030000686646e-01</leafValues></_>
        <_>
          <internalNodes>
            0 -1 418 -1.4452796895056963e-03</internalNodes>
          <leafValues>
            4.0168562531471252e-01 -1.2900780141353607e-01</leafValues></_>
        <_>
          <internalNodes>
            0 -1 422 -1.7441465752199292e-03</internalNodes>
          <leafValues>
            3.2451897859573364e-01 -1.6131319105625153e-01</leafValues></_>
        <_>
          <internalNodes>
            0 -1 96 -1.4146766625344753e-04</internalNodes>
          <leafValues>
            2.6628592610359192e-01 -1.9678838551044464e-01</leafValues></_>
        <_>
          <internalNodes>
            0 -1 122 -4.6214158646762371e-03</internalNodes>
          <leafValues>
            5.8779639005661011e-01 -9.6615120768547058e-02</leafValues></_>
        <_>
          <internalNodes>
            0 -1 419 4.8263897188007832e-03</internalNodes>
          <leafValues>
            6.7664146423339844e-02 -8.8076984882354736e-01</leafValues></_>
        <_>
          <internalNodes>
            0 -1 431 -4.7865859232842922e-04</internalNodes>
          <leafValues>
            3.0438581109046936e-01 -1.8462641537189484e-01</leafValues></_></weakClassifiers></_>
    <!-- stage 25 -->
    <_>
      <maxWeakCount>20</maxWeakCount>
      <stageThreshold>-9.1267979145050049e-01</stageThreshold>
      <weakClassifiers>
        <_>
          <internalNodes>
            0 -1 166 1.3216712977737188e-03</internalNodes>
          <leafValues>
            -4.6232876181602478e-01 1.7857143282890320e-01</leafValues></_>
        <_>
          <internalNodes>
            0 -1 373 -1.0185498977079988e-03</internalNodes>
          <leafValues>
            1.6180220246315002e-01 -2.3997218906879425e-01</leafValues></_>
        <_>
          <internalNodes>
            0 -1 171 -4.5925056934356689e-01</internalNodes>
          <leafValues>
            -1. 3.9993155747652054e-02</leafValues></_>
        <_>
          <internalNodes>
            0 -1 52 1.1716048466041684e-03</internalNodes>
          <leafValues>
            1.0581145435571671e-01 -4.1444182395935059e-01</leafValues></_>
        <_>
          <internalNodes>
            0 -1 229 -6.4038969576358795e-03</internalNodes>
          <leafValues>
            -8.6991822719573975e-01 4.0970731526613235e-02</leafValues></_>
        <_>
          <internalNodes>
            0 -1 191 -1.1085868813097477e-02</internalNodes>
          <leafValues>
            5.2230739593505859e-01 -7.8598812222480774e-02</leafValues></_>
        <_>
          <internalNodes>
            0 -1 137 -1.0723593877628446e-03</internalNodes>
          <leafValues>
            4.2375355958938599e-01 -9.0659342706203461e-02</leafValues></_>
        <_>
          <internalNodes>
            0 -1 403 -1.1248463764786720e-02</internalNodes>
          <leafValues>
            -9.8565652966499329e-02 4.7438323497772217e-01</leafValues></_>
        <_>
          <internalNodes>
            0 -1 335 -1.0997602716088295e-02</internalNodes>
          <leafValues>
            8.1044977903366089e-01 -2.0330866798758507e-02</leafValues></_>
        <_>
          <internalNodes>
            0 -1 263 -1.1377318203449249e-01</internalNodes>
          <leafValues>
            8.9760893583297729e-01 -4.4060137122869492e-02</leafValues></_>
        <_>
          <internalNodes>
            0 -1 269 -1.4317651093006134e-01</internalNodes>
          <leafValues>
            3.9680457115173340e-01 -9.9227517843246460e-02</leafValues></_>
        <_>
          <internalNodes>
            0 -1 185 -2.0213841926306486e-03</internalNodes>
          <leafValues>
            -2.9714131355285645e-01 1.6176141798496246e-01</leafValues></_>
        <_>
          <internalNodes>
            0 -1 215 2.4461368098855019e-02</internalNodes>
          <leafValues>
            -9.9976651370525360e-02 5.2005386352539063e-01</leafValues></_>
        <_>
          <internalNodes>
            0 -1 323 -1.1822806671261787e-02</internalNodes>
          <leafValues>
            3.8504648208618164e-01 -1.2004435062408447e-01</leafValues></_>
        <_>
          <internalNodes>
            0 -1 178 -1.2244044337421656e-03</internalNodes>
          <leafValues>
            1.8535119295120239e-01 -2.5352555513381958e-01</leafValues></_>
        <_>
          <internalNodes>
            0 -1 174 1.5795030631124973e-03</internalNodes>
          <leafValues>
            2.2316114604473114e-01 -2.7040767669677734e-01</leafValues></_>
        <_>
          <internalNodes>
            0 -1 83 2.1298225037753582e-03</internalNodes>
          <leafValues>
            -2.1786148846149445e-01 2.1777208149433136e-01</leafValues></_>
        <_>
          <internalNodes>
            0 -1 51 1.5972979366779327e-02</internalNodes>
          <leafValues>
            8.6492389440536499e-02 -6.1955630779266357e-01</leafValues></_>
        <_>
          <internalNodes>
            0 -1 274 6.0121845453977585e-03</internalNodes>
          <leafValues>
            -8.6872212588787079e-02 7.6748514175415039e-01</leafValues></_>
        <_>
          <internalNodes>
            0 -1 311 1.4740343904122710e-03</internalNodes>
          <leafValues>
            1.5184777975082397e-01 -3.4623873233795166e-01</leafValues></_></weakClassifiers></_>
    <!-- stage 26 -->
    <_>
      <maxWeakCount>19</maxWeakCount>
      <stageThreshold>-1.0334031581878662e+00</stageThreshold>
      <weakClassifiers>
        <_>
          <internalNodes>
            0 -1 410 -6.9386889226734638e-03</internalNodes>
          <leafValues>
            4.0540540218353271e-01 -4.5605307817459106e-01</leafValues></_>
        <_>
          <internalNodes>
            0 -1 412 -5.3985174745321274e-03</internalNodes>
          <leafValues>
            -4.2561024427413940e-01 8.9580684900283813e-02</leafValues></_>
        <_>
          <internalNodes>
            0 -1 212 6.3372467411682010e-04</internalNodes>
          <leafValues>
            -1.2896610796451569e-01 3.3226397633552551e-01</leafValues></_>
        <_>
          <internalNodes>
            0 -1 342 5.8518769219517708e-04</internalNodes>
          <leafValues>
            1.6318145394325256e-01 -3.0059850215911865e-01</leafValues></_>
        <_>
          <internalNodes>
            0 -1 320 -6.8885840475559235e-02</internalNodes>
          <leafValues>
            -9.0492433309555054e-01 9.0560883283615112e-02</leafValues></_>
        <_>
          <internalNodes>
            0 -1 56 3.8578614476136863e-04</internalNodes>
          <leafValues>
            1.3934440910816193e-01 -3.0224806070327759e-01</leafValues></_>
        <_>
          <internalNodes>
            0 -1 313 -1.7006468624458648e-05</internalNodes>
          <leafValues>
            2.7550557255744934e-01 -1.5859322249889374e-01</leafValues></_>
        <_>
          <internalNodes>
            0 -1 156 -3.6872997879981995e-03</internalNodes>
          <leafValues>
            5.0966995954513550e-01 -8.6067952215671539e-02</leafValues></_>
        <_>
          <internalNodes>
            0 -1 44 -3.4653455950319767e-03</internalNodes>
          <leafValues>
            -6.3889664411544800e-01 7.0238292217254639e-02</leafValues></_>
        <_>
          <internalNodes>
            0 -1 369 -3.1033614650368690e-03</internalNodes>
          <leafValues>
            2.2505700588226318e-01 -2.1517580747604370e-01</leafValues></_>
        <_>
          <internalNodes>
            0 -1 291 -4.3507521040737629e-03</internalNodes>
          <leafValues>
            2.5336441397666931e-01 -2.0148447155952454e-01</leafValues></_>
        <_>
          <internalNodes>
            0 -1 327 -1.0520645976066589e-01</internalNodes>
          <leafValues>
            -6.5641516447067261e-01 6.8017967045307159e-02</leafValues></_>
        <_>
          <internalNodes>
            0 -1 85 -1.4152103103697300e-02</internalNodes>
          <leafValues>
            -3.3339068293571472e-01 1.2024736404418945e-01</leafValues></_>
        <_>
          <internalNodes>
            0 -1 366 -1.3110855361446738e-03</internalNodes>
          <leafValues>
            2.9838719964027405e-01 -1.5392705798149109e-01</leafValues></_>
        <_>
          <internalNodes>
            0 -1 117 8.3501506596803665e-03</internalNodes>
          <leafValues>
            -6.8584375083446503e-02 6.8138694763183594e-01</leafValues></_>
        <_>
          <internalNodes>
            0 -1 141 -3.6608180380426347e-05</internalNodes>
          <leafValues>
            2.4080044031143188e-01 -2.0406001806259155e-01</leafValues></_>
        <_>
          <internalNodes>
            0 -1 149 3.3716537291184068e-04</internalNodes>
          <leafValues>
            1.7600618302822113e-01 -2.6640191674232483e-01</leafValues></_>
        <_>
          <internalNodes>
            0 -1 67 3.4346759319305420e-02</internalNodes>
          <leafValues>
            7.5625449419021606e-02 -6.7632806301116943e-01</leafValues></_>
        <_>
          <internalNodes>
            0 -1 358 1.8677357584238052e-02</internalNodes>
          <leafValues>
            9.0453334152698517e-02 -5.0447225570678711e-01</leafValues></_></weakClassifiers></_>
    <!-- stage 27 -->
    <_>
      <maxWeakCount>23</maxWeakCount>
      <stageThreshold>-1.0078516006469727e+00</stageThreshold>
      <weakClassifiers>
        <_>
          <internalNodes>
            0 -1 281 1.6066420823335648e-02</internalNodes>
          <leafValues>
            -4.3729904294013977e-01 6.6666668653488159e-01</leafValues></_>
        <_>
          <internalNodes>
            0 -1 94 -6.9625698029994965e-02</internalNodes>
          <leafValues>
            -4.0709429979324341e-01 9.2150866985321045e-02</leafValues></_>
        <_>
          <internalNodes>
            0 -1 184 2.4144323542714119e-03</internalNodes>
          <leafValues>
            -1.3894174993038177e-01 3.0702909827232361e-01</leafValues></_>
        <_>
          <internalNodes>
            0 -1 287 -4.3758872197940946e-04</internalNodes>
          <leafValues>
            2.3941168189048767e-01 -2.0806090533733368e-01</leafValues></_>
        <_>
          <internalNodes>
            0 -1 227 7.8463628888130188e-03</internalNodes>
          <leafValues>
            9.7672797739505768e-02 -7.4865877628326416e-01</leafValues></_>
        <_>
          <internalNodes>
            0 -1 194 3.9746694266796112e-02</internalNodes>
          <leafValues>
            -1.3427171111106873e-01 3.6576473712921143e-01</leafValues></_>
        <_>
          <internalNodes>
            0 -1 95 3.4225191920995712e-03</internalNodes>
          <leafValues>
            -2.0353950560092926e-01 2.3887580633163452e-01</leafValues></_>
        <_>
          <internalNodes>
            0 -1 214 -3.0851075425744057e-03</internalNodes>
          <leafValues>
            -3.8082844018936157e-01 1.3976310193538666e-01</leafValues></_>
        <_>
          <internalNodes>
            0 -1 331 -2.2598646581172943e-02</internalNodes>
          <leafValues>
            -4.9165362119674683e-01 9.7484990954399109e-02</leafValues></_>
        <_>
          <internalNodes>
            0 -1 260 9.4692874699831009e-03</internalNodes>
          <leafValues>
            -1.4333882927894592e-01 4.1175249218940735e-01</leafValues></_>
        <_>
          <internalNodes>
            0 -1 112 1.9337770063430071e-03</internalNodes>
          <leafValues>
            1.9046734273433685e-01 -2.9808562994003296e-01</leafValues></_>
        <_>
          <internalNodes>
            0 -1 324 -1.4360425993800163e-02</internalNodes>
          <leafValues>
            3.2177552580833435e-01 -1.6303108632564545e-01</leafValues></_>
        <_>
          <internalNodes>
            0 -1 414 3.2560215331614017e-03</internalNodes>
          <leafValues>
            1.0075431317090988e-01 -4.9833938479423523e-01</leafValues></_>
        <_>
          <internalNodes>
            0 -1 344 5.7441706303507090e-04</internalNodes>
          <leafValues>
            -1.6457496583461761e-01 3.2076698541641235e-01</leafValues></_>
        <_>
          <internalNodes>
            0 -1 273 1.1287210509181023e-03</internalNodes>
          <leafValues>
            1.5213958919048309e-01 -3.4668081998825073e-01</leafValues></_>
        <_>
          <internalNodes>
            0 -1 59 -5.8416997489985079e-05</internalNodes>
          <leafValues>
            2.3951525986194611e-01 -2.3412661254405975e-01</leafValues></_>
        <_>
          <internalNodes>
            0 -1 146 9.3526201089844108e-04</internalNodes>
          <leafValues>
            2.0054553449153900e-01 -2.6299244165420532e-01</leafValues></_>
        <_>
          <internalNodes>
            0 -1 161 -1.9063155632466078e-03</internalNodes>
          <leafValues>
            4.1118913888931274e-01 -1.3225832581520081e-01</leafValues></_>
        <_>
          <internalNodes>
            0 -1 216 5.3528230637311935e-04</internalNodes>
          <leafValues>
            1.7846120893955231e-01 -2.7394789457321167e-01</leafValues></_>
        <_>
          <internalNodes>
            0 -1 319 3.5305501660332084e-04</internalNodes>
          <leafValues>
            1.7730550467967987e-01 -2.9265099763870239e-01</leafValues></_>
        <_>
          <internalNodes>
            0 -1 374 5.5800704285502434e-04</internalNodes>
          <leafValues>
            -1.1734631657600403e-01 4.3162474036216736e-01</leafValues></_>
        <_>
          <internalNodes>
            0 -1 101 -1.2954990961588919e-04</internalNodes>
          <leafValues>
            -4.1795215010643005e-01 1.3447341322898865e-01</leafValues></_>
        <_>
          <internalNodes>
            0 -1 17 1.4181149005889893e-01</internalNodes>
          <leafValues>
            8.2526981830596924e-02 -6.1649274826049805e-01</leafValues></_></weakClassifiers></_></stages>
  <features>
    <_>
      <rects>
        <_>
          0 0 6 4 -1.</_>
        <_>
          3 0 3 4 2.</_></rects>
      <tilted>0</tilted></_>
    <_>
      <rects>
        <_>
          0 0 3 18 -1.</_>
        <_>
          0 6 3 6 2.</_></rects>
      <tilted>0</tilted></_>
    <_>
      <rects>
        <_>
          0 0 7 21 -1.</_>
        <_>
          0 7 7 7 2.</_></rects>
      <tilted>0</tilted></_>
    <_>
      <rects>
        <_>
          0 0 11 21 -1.</_>
        <_>
          0 7 11 7 2.</_></rects>
      <tilted>0</tilted></_>
    <_>
      <rects>
        <_>
          0 0 24 19 -1.</_>
        <_>
          12 0 12 19 2.</_></rects>
      <tilted>0</tilted></_>
    <_>
      <rects>
        <_>
          0 0 22 21 -1.</_>
        <_>
          0 7 22 7 2.</_></rects>
      <tilted>0</tilted></_>
    <_>
      <rects>
        <_>
          0 1 2 4 -1.</_>
        <_>
          0 1 1 2 2.</_>
        <_>
          1 3 1 2 2.</_></rects>
      <tilted>0</tilted></_>
    <_>
      <rects>
        <_>
          0 1 4 2 -1.</_>
        <_>
          0 1 2 1 2.</_>
        <_>
          2 2 2 1 2.</_></rects>
      <tilted>0</tilted></_>
    <_>
      <rects>
        <_>
          0 1 12 10 -1.</_>
        <_>
          0 6 12 5 2.</_></rects>
      <tilted>0</tilted></_>
    <_>
      <rects>
        <_>
          0 2 4 10 -1.</_>
        <_>
          2 2 2 10 2.</_></rects>
      <tilted>0</tilted></_>
    <_>
      <rects>
        <_>
          0 2 6 14 -1.</_>
        <_>
          3 2 3 14 2.</_></rects>
      <tilted>0</tilted></_>
    <_>
      <rects>
        <_>
          0 2 20 11 -1.</_>
        <_>
          10 2 10 11 2.</_></rects>
      <tilted>0</tilted></_>
    <_>
      <rects>
        <_>
          0 3 4 4 -1.</_>
        <_>
          0 3 2 2 2.</_>
        <_>
          2 5 2 2 2.</_></rects>
      <tilted>0</tilted></_>
    <_>
      <rects>
        <_>
          0 3 12 8 -1.</_>
        <_>
          0 7 12 4 2.</_></rects>
      <tilted>0</tilted></_>
    <_>
      <rects>
        <_>
          0 3 20 4 -1.</_>
        <_>
          0 5 20 2 2.</_></rects>
      <tilted>0</tilted></_>
    <_>
      <rects>
        <_>
          0 4 2 11 -1.</_>
        <_>
          1 4 1 11 2.</_></rects>
      <tilted>0</tilted></_>
    <_>
      <rects>
        <_>
          0 4 2 13 -1.</_>
        <_>
          1 4 1 13 2.</_></rects>
      <tilted>0</tilted></_>
    <_>
      <rects>
        <_>
          0 4 24 18 -1.</_>
        <_>
          12 4 12 18 2.</_></rects>
      <tilted>0</tilted></_>
    <_>
      <rects>
        <_>
          0 4 15 6 -1.</_>
        <_>
          0 7 15 3 2.</_></rects>
      <tilted>0</tilted></_>
    <_>
      <rects>
        <_>
          0 5 10 14 -1.</_>
        <_>
          5 5 5 14 2.</_></rects>
      <tilted>0</tilted></_>
    <_>
      <rects>
        <_>
          0 5 12 18 -1.</_>
        <_>
          0 5 6 9 2.</_>
        <_>
          6 14 6 9 2.</_></rects>
      <tilted>0</tilted></_>
    <_>
      <rects>
        <_>
          0 6 4 9 -1.</_>
        <_>
          2 6 2 9 2.</_></rects>
      <tilted>0</tilted></_>
    <_>
      <rects>
        <_>
          0 6 4 12 -1.</_>
        <_>
          2 6 2 12 2.</_></rects>
      <tilted>0</tilted></_>
    <_>
      <rects>
        <_>
          0 6 8 18 -1.</_>
        <_>
          0 6 4 9 2.</_>
        <_>
          4 15 4 9 2.</_></rects>
      <tilted>0</tilted></_>
    <_>
      <rects>
        <_>
          0 6 12 16 -1.</_>
        <_>
          6 6 6 16 2.</_></rects>
      <tilted>0</tilted></_>
    <_>
      <rects>
        <_>
          0 7 6 2 -1.</_>
        <_>
          0 7 3 1 2.</_>
        <_>
          3 8 3 1 2.</_></rects>
      <tilted>0</tilted></_>
    <_>
      <rects>
        <_>
          0 7 6 11 -1.</_>
        <_>
          3 7 3 11 2.</_></rects>
      <tilted>0</tilted></_>
    <_>
      <rects>
        <_>
          0 7 14 2 -1.</_>
        <_>
          0 7 7 1 2.</_>
        <_>
          7 8 7 1 2.</_></rects>
      <tilted>0</tilted></_>
    <_>
      <rects>
        <_>
          0 7 7 8 -1.</_>
        <_>
          0 11 7 4 2.</_></rects>
      <tilted>0</tilted></_>
    <_>
      <rects>
        <_>
          0 7 16 12 -1.</_>
        <_>
          8 7 8 12 2.</_></rects>
      <tilted>0</tilted></_>
    <_>
      <rects>
        <_>
          0 7 12 6 -1.</_>
        <_>
          0 10 12 3 2.</_></rects>
      <tilted>0</tilted></_>
    <_>
      <rects>
        <_>
          0 8 8 10 -1.</_>
        <_>
          4 8 4 10 2.</_></rects>
      <tilted>0</tilted></_>
    <_>
      <rects>
        <_>
          0 8 6 8 -1.</_>
        <_>
          0 12 6 4 2.</_></rects>
      <tilted>0</tilted></_>
    <_>
      <rects>
        <_>
          0 8 14 10 -1.</_>
        <_>
          7 8 7 10 2.</_></rects>
      <tilted>0</tilted></_>
    <_>
      <rects>
        <_>
          0 8 12 16 -1.</_>
        <_>
          0 16 12 8 2.</_></rects>
      <tilted>0</tilted></_>
    <_>
      <rects>
        <_>
          0 8 24 10 -1.</_>
        <_>
          12 8 12 10 2.</_></rects>
      <tilted>0</tilted></_>
    <_>
      <rects>
        <_>
          0 9 2 2 -1.</_>
        <_>
          0 9 1 1 2.</_>
        <_>
          1 10 1 1 2.</_></rects>
      <tilted>0</tilted></_>
    <_>
      <rects>
        <_>
          0 9 1 6 -1.</_>
        <_>
          0 12 1 3 2.</_></rects>
      <tilted>0</tilted></_>
    <_>
      <rects>
        <_>
          0 9 4 2 -1.</_>
        <_>
          0 9 2 1 2.</_>
        <_>
          2 10 2 1 2.</_></rects>
      <tilted>0</tilted></_>
    <_>
      <rects>
        <_>
          0 9 10 1 -1.</_>
        <_>
